tree
version=v4
num_class=1
num_tree_per_iteration=1
label_index=0
max_feature_idx=10
objective=binary sigmoid:1
feature_names=Column_0 Column_1 Column_2 Column_3 Column_4 Column_5 Column_6 Column_7 Column_8 Column_9 Column_10
feature_infos=[-1.9983349981504293:1.3338894443215221] [-2.3522783849568341:2.2473567087858766] [-2.901985570278399:2.5574861637713] [-1.9956817046367861:7.5148398377628318] [-3.6301494702505654:3.6327757600645119] [-1.6959837443286896:2.2788185948359172] [-0.067979833670102116:14.710244877221664] [-0.10786004157489551:9.2712740084160199] [-0.097934241193684338:10.210933252878352] [-0.099483619289651354:10.051906104144161] none
tree_sizes=2953 3462 3470 3403 3408 3394 3438 3411 3434 3455 3395 3441 3404 3407 3434 3406 3455 3421 3421 3403 3404 3421 3417 3400 3451 3459 3450 3459 3459 3433 3449 3413 3442 3452 3452 3438 3441 3440 3467 3415 3431 3423 3459 3438 3450 3419 3471 3466 3424 3463 3418 3451 3469 3472 3481 3446 3481 3478 3468 3445 3438 3433 3481 3485 3477 3465 3485 3478 3451 3483 3444 3474 3501 3494 3461 3449 3482 3494 3496 3469 3492 3476 3505 3473 3515 3520 3459 3513 3502 3502 3510 3510 3523 3515 3500 3523 3477 3477 3478 3530

Tree=0
num_leaves=27
num_cat=0
split_feature=7 8 9 6 3 3 5 5 1 1 1 3 3 3 3 3 3 5 1 1 2 3 5 1 2 2
split_gain=2755.9 2126.71 1931.01 977.872 0.165019 1.11736 1.73272 0.446314 0.976632 0.251222 1.06998 0.231917 0.982396 0.078897 0.80212 0.134383 1.13593 4.54747e-13 2.84217e-14 7.10543e-15 1.77636e-15 1.77636e-15 1.77636e-15 4.44089e-16 4.44089e-16 2.22045e-16
threshold=1.0000000180025095e-35 1.0000000180025095e-35 1.0000000180025095e-35 1.0000000180025095e-35 -0.54818590390206412 -0.57049797790182855 -0.41556322795748207 1.5954039633985246 -0.27744298940985923 0.92246181765346102 0.9724578512810963 -0.97211530989758954 -1.0334735133969419 0.8072725915836293 0.82400664708345261 0.95787909108203961 0.94114503558221629 -0.90259434461401489 2.0223745574615108 0.52249354863236375 0.97356535204082095 -0.60396608890147541 -0.61980208332957643 0.072529245983616791 0.50175915280196703 2.3215830641518544
decision_type=2 2 2 2 2 2 2 2 2 2 2 2 2 2 2 2 2 2 2 2 2 2 2 2 2 2
left_child=1 2 3 4 5 7 -7 9 -9 19 -11 12 -12 18 -15 16 20 -2 -6 -1 -16 -13 24 -8 -21 -20
right_child=17 -3 -4 -5 13 6 23 8 -10 10 11 21 -14 14 15 -17 -18 -19 25 22 -22 -23 -24 -25 -26 -27
leaf_value=-3.3760076115565751 -1.885358698520343 -1.8853586985203401 -1.8853586985203401 -1.8853586985203401 -3.3760076115565751 -3.299564077554717 -3.3760076115565751 -3.3014751659047636 -3.3760076115565751 -3.3111967892506522 -3.3760076115565751 -3.3760076115565751 -3.3111967892506522 -3.3321649964672742 -3.3760076115565751 -3.3760076115565751 -3.3111967892506522 -1.8853586985203401 -3.3760076115565751 -3.3760076115565751 -3.3760076115565751 -3.3760076115565751 -3.3760076115565751 -3.3760076115565751 -3.3760076115565751 -3.3760076115565751
leaf_weight=50.280116572976112 0.67084878683090243 2.4821405112743369 2.213800996541976 1.1069004982709874 142.75662183761597 1.3081551343202593 0.97273074090480693 0.67084878683090221 1.2746126949787127 0.77147610485553642 2.415055632591248 8.0166430026292765 0.77147610485553642 1.1404429376125325 4.4611444324254981 32.368453964591026 0.7714761048555373 2.6163102686405173 0.83856098353862651 1.3416975736618044 1.0062731802463529 1.0062731802463538 4.4611444324254981 0.73793366551399231 1.2075278162956236 0.6708487868309021
leaf_count=1499 20 74 66 33 4256 39 29 20 38 23 72 239 23 34 133 965 23 78 25 40 30 30 133 22 36 20
internal_value=-3.32421 -3.34205 -3.35582 -3.36833 -3.37466 -3.37268 -3.34288 -3.37393 -3.35031 -3.37458 -3.3683 -3.37191 -3.36032 -3.37546 -3.37349 -3.37471 -3.36799 -1.88536 -3.37601 -3.37601 -3.37601 -3.37601 -3.37601 -3.37601 -3.37601 -3.37601
internal_weight=0 265.052 262.57 260.356 259.25 75.2357 3.01882 72.2169 1.94546 70.2714 12.9809 12.2094 3.18653 184.014 39.7478 38.6073 6.23889 3.28716 144.266 57.2905 5.46742 9.02292 7.01037 1.71066 2.54923 1.50941
internal_count=8000 7902 7828 7762 7729 2243 90 2153 58 2095 387 364 95 5486 1185 1151 186 98 4301 1708 163 269 209 51 76 45
is_linear=0
shrinkage=1


Tree=1
num_leaves=31
num_cat=0
split_feature=7 8 9 6 3 3 4 5 5 4 2 2 4 4 4 4 3 3 3 5 3 3 3 3 3 3 3 3 2 3
split_gain=681.439 553.701 525.34 274.698 0.171692 1.12629 1.68057 2.83488 0.453874 0.982889 0.151602 0.732008 0.195351 1.30797 0.0974029 0.690155 0.778499 0.182368 1.29646 2.98989e-06 5.83986e-07 1.54704e-06 4.91508e-07 1.30749e-06 1.04805e-07 8.92887e-07 8.19792e-08 1.73362e-07 7.12299e-08 6.74621e-08
threshold=1.0000000180025095e-35 1.0000000180025095e-35 1.0000000180025095e-35 1.0000000180025095e-35 -0.54818590390206412 -0.57049797790182855 0.51794387606888859 -0.28987777849773172 1.5954039633985246 0.91921046337911383 0.56916003840751483 0.63656092401306263 1.3906987034686282 1.4508886915651622 -1.1071858025375239 -1.1272491319030349 0.82400664708345261 0.95787909108203961 0.92441098008239286 -0.41556322795748207 -0.97211530989758954 -1.0334735133969419 0.8072725915836293 0.82400664708345261 0.94114503558221629 0.98576918358174515 0.8072725915836293 0.86305277658304058 0.83876358082972524 -0.81593079189923812
decision_type=2 2 2 2 2 2 2 2 2 2 2 2 2 2 2 2 2 2 2 2 2 2 2 2 2 2 2 2 2 2
left_child=1 2 3 4 5 8 19 -8 10 -10 -1 -12 20 -14 15 17 -17 18 26 -7 21 -13 -16 -24 -25 -26 -6 -28 29 -22
right_child=-2 -3 -4 -5 14 6 7 -9 9 -11 11 12 13 -15 22 16 -18 -19 -20 -21 28 -23 23 24 25 -27 27 -29 -30 -31
leaf_value=-0.051709912539214122 0.3794358829254379 0.3794358829254379 0.3794358829254379 0.3794358829254379 -0.051709186328700557 -0.051844964377218895 0.094864528192807662 -0.051709186328700578 -0.05174579954073702 0.023728158046110347 -0.0073416807238767499 -0.051711280020081775 0.026261874137891428 -0.051715013333555854 -0.05170918632870064 0.026177643351652985 -0.051715245690537773 -0.05170918632870064 0.023856589990775404 -0.05170918632870062 -0.051732070121898358 -0.051791141569793336 -0.051785782617092095 -0.05170918632870062 -0.051773833408833458 -0.05170918632870062 -0.051740579363258314 -0.051709186328700585 -0.05170918632870064 -0.051714169379544733
leaf_weight=48.151483051478863 11.212183460593222 8.4663426131010038 7.5510623306035987 3.7755311653017989 2.2372844442725208 0.7207152396440506 0.68167833238840103 0.63922412693500497 1.2375027984380711 0.66220108419656742 1.1266005747020269 1.8557395562529566 0.64121371507644598 3.3339134007692337 134.65256233885884 0.64189156144857296 0.64121371507644653 27.294870220124722 0.66110959649085987 0.92687498405575686 0.67914368584752116 0.90075474604964512 0.73248831927776237 3.3559266664087772 0.66110959649086032 2.7806249521672726 0.81236733123660065 0.95883619040250778 8.0222627930343133 2.3391368277370921
leaf_count=1506 98 74 66 33 70 21 20 20 38 20 35 58 20 104 4213 20 20 854 20 29 21 27 22 105 20 87 25 30 251 73
internal_value=0 -0.0184572 -0.0314801 -0.0438359 -0.0502967 -0.0482393 -0.0180833 0.0239331 -0.0495376 -0.025437 -0.0502204 -0.0464254 -0.048903 -0.0391368 -0.0511402 -0.0487038 -0.0127482 -0.0501471 -0.0410162 -0.0517686 -0.0517168 -0.0517374 -0.0517099 -0.0517223 -0.0517155 -0.0517216 -0.0517155 -0.0517236 -0.0517116 -0.0517182
internal_weight=0 267.142 258.675 251.124 247.349 71.9184 2.96849 1.3209 68.95 1.8997 67.0502 18.8988 17.7722 3.97513 175.43 33.2476 1.28311 31.9645 4.6696 1.64759 13.797 2.75649 142.183 7.53015 6.79766 3.44173 4.00849 1.7712 11.0405 3.01828
internal_count=8000 7902 7828 7762 7729 2243 90 40 2153 58 2095 589 554 124 5486 1039 40 999 145 50 430 85 4447 234 212 107 125 55 345 94
is_linear=0
shrinkage=0.05


Tree=2
num_leaves=31
num_cat=0
split_feature=7 8 9 6 3 3 4 5 5 3 1 1 4 4 4 4 1 3 3 5 3 3 3 3 3 3 1 3 3 5
split_gain=475.562 395.704 383.401 203.65 0.17861 1.13275 1.58053 2.40461 0.461333 0.973305 0.271816 1.08416 0.351221 0.97132 0.101523 0.692514 0.791725 0.188509 1.25057 2.55963e-06 1.04126e-06 1.72901e-06 4.20942e-07 1.11961e-06 8.9764e-08 7.64705e-07 8.73171e-08 7.02249e-08 1.48502e-07 3.46451e-08
threshold=1.0000000180025095e-35 1.0000000180025095e-35 1.0000000180025095e-35 1.0000000180025095e-35 -0.54818590390206412 -0.57049797790182855 0.51794387606888859 -0.28987777849773172 1.5954039633985246 -0.71552645890029776 0.92246181765346102 0.9724578512810963 1.3906987034686282 1.4910153502961845 -1.1071858025375239 -1.1272491319030349 -0.077458854899303556 0.95787909108203961 0.92441098008239286 -0.41556322795748207 -0.97211530989758954 -1.0334735133969419 0.8072725915836293 0.82400664708345261 0.94114503558221629 0.98576918358174515 0.12252527961125219 0.8072725915836293 0.86305277658304058 -0.38414186559254454
decision_type=2 2 2 2 2 2 2 2 2 2 2 2 2 2 2 2 2 2 2 2 2 2 2 2 2 2 2 2 2 2
left_child=1 2 3 4 5 8 19 -8 10 -10 26 -12 20 -14 15 17 -17 18 27 -7 21 -13 -16 -24 -25 -26 -1 -6 -29 -15
right_child=-2 -3 -4 -5 14 6 7 -9 9 -11 11 12 13 29 22 16 -18 -19 -20 -21 -22 -23 23 24 25 -27 -28 28 -30 -31
leaf_value=-0.051623240329588586 0.27541559547967864 0.27541559547967864 0.27541559547967864 0.27541559547967864 -0.051623046262973232 -0.051751746609188236 0.082345852443416939 -0.051623046262973343 -0.051733063319941146 0.023857642097776532 0.014955669404385599 -0.051625515995409627 0.019049900485217305 -0.051638297483216113 -0.051623046262973406 0.027294747882452487 -0.051702052951032987 -0.051623046262973406 0.022153055379384765 -0.051623046262973385 -0.051624003362889408 -0.051731596407887853 -0.051695659607406963 -0.051623046262973399 -0.051684336526420072 -0.051623046262973399 -0.051627653463419104 -0.051652812433747856 -0.05162304626297335 -0.05162304024134981
leaf_weight=35.723906630650163 14.56139490008354 10.99533900618553 9.8066537082195264 4.9033268541097632 2.1316321752965517 0.68676920235157013 0.74426691979169846 0.60903776437044121 1.1942394003272054 0.66185038536786933 0.74960817024111648 0.94529766403138638 0.7065077237784857 0.614131409674883 128.29380506463349 0.63299883529543877 0.63569575920700916 26.005912538617849 0.67595235258340824 0.88310475833713942 7.3123151492327452 0.64704528450965682 0.69794845581054588 3.1974482629448175 0.62992832809686694 2.6493142750114202 16.332922076806426 0.77402759343385674 0.91355664655566216 0.94400383159518209
leaf_count=1173 98 74 66 33 70 21 20 20 37 21 23 31 22 20 4213 20 20 854 20 29 240 20 22 105 20 87 535 25 30 31
internal_value=0 -0.018167 -0.0310429 -0.0435185 -0.0501451 -0.0479998 -0.0175436 0.0220548 -0.0493522 -0.0247787 -0.0500651 -0.043254 -0.0471606 -0.0295791 -0.0510271 -0.0484832 -0.0122876 -0.0499888 -0.0405342 -0.0516793 -0.051632 -0.0516686 -0.0516237 -0.0516355 -0.051629 -0.0516348 -0.0516246 -0.0516291 -0.0516367 -0.0516291
internal_weight=0 261.699 250.703 240.897 235.993 68.755 2.92318 1.3533 65.8318 1.85609 63.9757 11.9189 11.1693 2.26464 167.238 31.7698 1.26869 30.5011 4.49517 1.56987 8.90466 1.59234 135.468 7.17464 6.47669 3.27924 52.0568 3.81922 1.68758 1.55814
internal_count=8000 7902 7828 7762 7729 2243 90 40 2153 58 2095 387 364 73 5486 1039 40 999 145 50 291 51 4447 234 212 107 1708 125 55 51
is_linear=0
shrinkage=0.05


Tree=3
num_leaves=31
num_cat=0
split_feature=7 8 5 4 6 4 5 5 4 4 5 5 5 5 3 3 3 4 1 1 4 2 5 5 4 4 5 3 5 3
split_gain=367.177 311.668 172.965 60.215 107.857 18.1271 48.1333 10.1402 13.5418 4.7252 4.70197 1.30525 0.422947 0.38633 0.80075 0.143945 1.24404 1.52634 0.316304 1.14219 0.694603 0.808312 0.127058 1.58892 0.166536 1.36216 2.04832e-06 1.28001e-06 2.35829e-06 1.17598e-06
threshold=1.0000000180025095e-35 1.0000000180025095e-35 1.4382971515738368 0.95933712211013622 1.0000000180025095e-35 1.6615536499030303 1.2340582962017421 1.8467748623180256 0.62829218757920036 1.2703187272755609 1.6896680504933375 0.96697671609977254 1.5325612386686494 1.4068757892088992 -0.48682770040271178 -0.54818590390206412 -0.57049797790182855 0.51794387606888859 0.92246181765346102 0.9724578512810963 1.3906987034686282 1.3779706656741462 0.85700194782249084 0.87271262900495972 -1.1071858025375239 -1.1774074553168132 -0.41556322795748207 -0.55934194090194633 1.6425360069459309 1.0471273870810978
decision_type=2 2 2 2 2 2 2 2 2 2 2 2 2 2 2 2 2 2 2 2 2 2 2 2 2 2 2 2 2 2
left_child=1 2 5 4 7 13 11 27 -9 10 -5 -7 -11 15 -15 16 18 26 -1 -20 -21 -22 -17 -24 25 29 -18 28 -4 -25
right_child=-2 -3 3 9 -6 6 -8 8 -10 12 -12 -13 -14 14 -16 22 17 -19 19 20 21 -23 23 24 -26 -27 -28 -29 -30 -31
leaf_value=-0.051543049318147072 0.22114827362613201 0.22114827362613201 -0.051545897311290646 0.061046026515184683 0.22114827362613201 -0.051544327973335247 0.20305688401967528 -0.051552882857095333 0.21239591631403046 0.19098901081265887 0.19430867706266713 0.023109825198954811 0.21718235024256158 0.013762167001259011 -0.051551052578889346 -0.051544170734568989 -0.051663395799904532 0.023538390294061486 0.020219423271094907 -0.051550222516276015 0.029009146332942437 -0.051666770569360559 0.03366611158979102 -0.051615325422762051 -0.051542104561207717 0.026941448219893967 -0.05154138769867609 -0.051543358637835907 -0.051643612764072248 -0.051541387698676104
leaf_weight=40.887416981160641 17.147527396678925 12.948132932186125 1.657881712540987 1.2909761369228347 5.5991926193237296 6.9740250892937166 2.6237151753157377 1.0509065426886071 0.90388531424105156 2.3607998490333557 1.3584021627902982 0.63915657438337792 4.438882851973176 0.73052037321031127 1.3122954834252585 120.48972378484905 0.65436404384672642 1.3250084109604356 0.69451265409588714 8.1353903487324697 0.61979715153574833 0.62212049588561058 0.58664972521364944 0.6332161035388707 20.46157137490809 0.63642772845924156 0.72528668679296904 10.513278160244228 0.98391154035925854 3.5684104990214109
leaf_count=1408 98 74 57 33 32 240 20 36 6 21 11 17 27 20 45 4147 21 38 21 279 20 20 20 21 705 21 25 362 32 123
internal_value=0 -0.0178617 -0.0306246 0.0814238 0.0337001 -0.0465401 0.0183711 -0.0357617 0.0704956 0.186018 0.129373 -0.0452768 0.208088 -0.0498283 -0.0281947 -0.0500493 -0.0478341 -0.0147894 -0.0495879 -0.041651 -0.0462333 -0.0114043 -0.0508614 -0.0476832 -0.0495695 -0.0412269 -0.0515993 -0.0515512 -0.0515823 -0.0515525
internal_weight=0 255.426 242.478 30.1581 20.7091 212.32 10.2369 15.1099 1.95479 9.44906 2.64938 7.61318 6.79968 202.083 2.04282 200.04 53.6639 2.70466 50.9592 10.0718 9.37731 1.24192 146.376 25.8863 25.2996 4.83805 1.37965 13.1551 2.64179 4.20163
internal_count=8000 7902 7828 617 525 7211 277 493 42 92 44 257 48 6934 65 6869 1832 84 1748 340 319 40 5037 890 870 165 46 451 89 144
is_linear=0
shrinkage=0.05


Tree=4
num_leaves=31
num_cat=0
split_feature=7 9 6 4 4 4 3 4 4 4 4 4 5 2 2 4 4 4 4 5 3 3 0 4 4 5 4 5 5 5
split_gain=298.659 262.258 126.25 113.73 91.3584 7.39283 18.2527 3.3678 2.18536 1.71347 0.219371 1.1057 0.747522 0.204964 0.773756 0.255402 0.948005 0.100595 0.707322 0.787255 0.200851 1.26265 0.0608478 0.398715 1.20803 0.0037715 0.0101353 1.04719e-05 6.43042e-06 2.91547e-06
threshold=1.0000000180025095e-35 1.0000000180025095e-35 1.0000000180025095e-35 2.2433902015028573 -2.6219671696336238 1.8320919495098762 -0.78246268089959126 -2.2808905704199325 -2.4213338759785112 2.6446567888130827 0.76873549313777934 0.77876715782053474 1.5954039633985246 0.43435826719641918 0.50175915280196703 1.3906987034686282 1.4508886915651622 -1.1071858025375239 -1.1272491319030349 0.32283878761855156 0.95787909108203961 0.92441098008239286 -1.1652788875324411 0.51794387606888859 0.58816552884817763 1.5168505574861808 1.3706353741031172 0.85700194782249084 1.4068757892088992 -0.16419232903798131
decision_type=2 2 2 2 2 2 2 2 2 2 2 2 2 2 2 2 2 2 2 2 2 2 2 2 2 2 2 2 2 2
left_child=1 2 3 4 -1 7 27 8 -6 -5 17 -12 13 28 -15 -16 -17 18 20 -20 21 -9 23 -19 -25 -3 -27 -7 -13 -26
right_child=-2 25 -4 9 5 6 -8 10 -10 -11 11 12 -14 14 15 16 -18 22 19 -21 -22 -23 -24 24 29 26 -28 -29 -30 -31
leaf_value=0.17328087148798618 0.18719206993008272 0.19094731140212592 0.18805749158120294 0.1277771517571093 0.051508918247754401 -0.051464586053577691 0.15052781354366523 -0.05147663661610289 -0.051463952252243331 0.17640303466515905 0.012388205414845557 -0.051475546300838351 -0.007561795114854589 -0.0014090056802175484 -0.05149146570311039 0.013117318564813641 -0.051548164428730815 -0.051466578592716111 -0.051590381360541393 0.028866158116019426 -0.051465306952498839 0.023929690913572044 -0.051468289766029102 0.032319667878956203 -0.051615259255105808 0.19120006995913985 0.18777243767769916 -0.051689454798911273 -0.051598945585088332 -0.051473675395818409
leaf_weight=4.7811577655374995 19.184486985206604 5.6048831194639197 6.4406153410673133 3.1277619469910851 1.3611154016107323 2.9859602060168986 1.6190523393452156 3.4811238553375068 0.82910929061472316 4.3055987153202295 0.78278912976384063 23.759057251736525 1.129901973530649 0.99763486720621486 8.861708911135791 0.7709673717617983 2.1398762334138155 12.539319351315497 0.59581433422863372 0.62086725234985352 21.740155041217804 0.66047717258334149 127.06505932286382 0.5963388998061413 0.59091373905539524 3.8619104623794538 4.8843608945608139 0.62633490934967984 1.1048261951655138 0.94518319144844976
leaf_count=33 98 29 33 40 31 108 16 125 30 28 28 855 34 35 316 24 74 453 20 20 786 20 4587 21 20 20 25 20 37 34
internal_value=0 -0.0175521 -0.0302523 -0.0364187 -0.042901 -0.0476905 0.0110232 -0.0491492 0.0125286 0.155943 -0.0497975 -0.0464454 -0.0476335 -0.0488366 -0.0436878 -0.0472706 -0.0344208 -0.0505826 -0.0477914 -0.0105338 -0.0495428 -0.0394513 -0.0511163 -0.0480675 -0.02808 0.189935 0.189286 -0.0515036 -0.051481 -0.0515281
internal_weight=0 248.81 234.459 228.018 220.585 215.804 5.23135 210.572 2.19022 7.43336 208.382 39.5468 38.764 37.6341 12.7702 11.7726 2.91084 168.835 27.0984 1.21668 25.8818 4.1416 141.737 14.6718 2.13244 14.3512 8.74627 3.6123 24.8639 1.5361
internal_count=8000 7902 7828 7795 7727 7694 144 7550 61 68 7489 1403 1375 1341 449 414 98 6086 971 40 931 145 5115 528 75 74 45 128 892 54
is_linear=0
shrinkage=0.05


Tree=5
num_leaves=31
num_cat=0
split_feature=7 8 9 5 5 3 3 3 4 3 4 4 5 2 4 5 5 2 3 3 4 1 1 4 0 5 4 3 4 3
split_gain=250.896 224.814 227.101 40.1177 5.88448 3.59485 1.90544 2.98202 3.30436 3.02481 2.7953 2.45439 1.87993 1.59237 1.67851 2.3792 0.592745 1.78422 0.123103 1.33858 1.49448 0.314547 1.04582 0.378272 1.11681 0.138512 0.68949 4.21397 0.0126363 0.0214461
threshold=1.0000000180025095e-35 1.0000000180025095e-35 1.0000000180025095e-35 1.4854291951212431 1.8310641811355566 0.20484659358998766 2.0734827910702651 0.087708205091224026 0.19693060622070802 -0.59838807040153419 0.97940045147564747 0.62829218757920036 1.6896680504933375 0.83876358082972524 0.046455635979373529 1.5954039633985246 1.4068757892088992 -0.71145678809797042 -0.54818590390206412 -0.57049797790182855 0.51794387606888859 0.92246181765346102 0.9724578512810963 1.3906987034686282 1.0000000180025095e-35 0.85700194782249084 -1.1071858025375239 0.95787909108203961 2.6446567888130827 4.8178678930412984
decision_type=2 2 2 2 2 2 2 2 2 2 2 2 2 2 2 2 2 2 2 2 2 2 2 2 2 2 2 2 2 2
left_child=1 2 3 16 6 -6 7 8 13 10 11 -10 -9 14 15 -5 18 -18 19 21 -21 -1 -23 -24 -25 -20 27 -27 29 -3
right_child=-2 28 -4 4 5 -7 -8 12 9 -11 -12 -13 -14 -15 -16 -17 17 -19 25 20 -22 22 23 24 -26 26 -28 -29 -30 -31
leaf_value=-0.051404191025717465 0.16377125299182926 0.16994571900510888 0.16600112885376936 0.054343268244955938 0.021845789397534909 0.12992616966283896 0.07984104472498238 -0.051396115892968053 -0.0088538150017062178 -0.051418672117656883 -0.051793360900846186 0.088137302533404044 0.023774535056591009 0.10533343609999618 0.081331523907774025 -0.051404139020688112 0.016349963362992655 -0.051444275431602661 -0.051396123871056611 -0.051442641247738924 0.025115644374310426 0.015410920274620644 -0.051400610627103729 -0.051556088628943411 0.028774492755837867 0.075641241341355164 -0.051394656957811917 -0.051417911571784151 0.16476749734645091 0.16536501167430398
leaf_weight=43.256896894425154 20.785155922174454 5.3983133882284147 13.890262067317961 1.2946351375430847 1.2452165260910981 2.0132241174578667 1.0429390966892231 2.6409694775938983 1.0720330718904727 2.0033363532274975 0.89116478711366642 1.6657583527266977 1.2140985932201145 1.1645671147853134 1.3751714676618574 0.90283241681754578 1.3635559286922214 3.3669902123510829 109.68344365805387 1.2521259151399129 1.298515675589442 0.74464121833443542 7.3924872707575542 1.4208220615983012 0.62211907282471646 0.78567179106176155 19.003574481233954 3.8515760656446218 5.2842689454555503 4.8515967726707458
leaf_count=1630 98 26 66 28 32 20 18 100 33 75 27 33 32 16 24 34 37 124 4153 46 38 23 279 49 21 26 720 144 25 23
internal_value=0 -0.0172517 -0.0298737 -0.0426732 0.0276255 0.0886231 0.0146072 0.00982425 0.0237829 -0.00210242 0.0251222 0.0501586 -0.0277222 0.0545592 0.0380084 0.0108968 -0.0493848 -0.0319029 -0.0498217 -0.0478541 -0.0124673 -0.0495432 -0.0416356 -0.0461377 -0.0270937 -0.0506479 -0.0471766 -0.0298907 0.166754 0.167778
internal_weight=0 241.993 226.459 212.568 18.5259 3.25844 15.2675 14.2246 10.3695 5.63229 3.62896 2.73779 3.85507 4.73721 3.57264 2.19747 194.042 4.73055 189.312 55.9876 2.55064 53.437 10.1801 9.43543 2.04294 133.324 23.6408 4.63725 15.5342 10.2499
internal_count=8000 7902 7828 7762 472 52 420 402 270 168 93 66 132 102 86 62 7290 161 7129 2086 84 2002 372 349 70 5043 890 170 74 49
is_linear=0
shrinkage=0.05


Tree=6
num_leaves=31
num_cat=0
split_feature=7 8 9 6 4 4 5 5 2 2 4 4 4 4 4 4 5 4 4 4 4 5 1 4 4 5 5 4 5 1
split_gain=215.452 195.17 199.862 116.847 0.204871 1.32305 0.550088 0.823972 0.310535 0.572678 1.20518 4.34181 0.206051 1.12416 0.118674 0.736102 0.885442 0.119822 1.08891 0.00754343 0.0127704 0.00269659 0.000923732 1.81241e-05 1.56282e-05 1.54863e-05 1.18895e-05 5.65573e-06 4.30892e-06 3.46373e-06
threshold=1.0000000180025095e-35 1.0000000180025095e-35 1.0000000180025095e-35 1.0000000180025095e-35 0.51794387606888859 0.5279755407516441 1.5954039633985246 1.6739573693108685 0.43435826719641918 0.63656092401306263 0.85902047528257997 0.76873549313777934 1.3906987034686282 1.4508886915651622 -1.1071858025375239 -1.1272491319030349 0.46423491826077073 -1.2877557668271251 -1.2676924374616141 2.6446567888130827 -2.6219671696336238 1.6739573693108685 0.27251338049417256 -2.4213338759785112 2.2433902015028573 1.4854291951212431 1.4068757892088992 0.95933712211013622 0.93555535373483489 0.4724975150047141
decision_type=2 2 2 2 2 2 2 2 2 2 2 2 2 2 2 2 2 2 2 2 2 2 2 2 2 2 2 2 2 2
left_child=1 2 3 4 14 -6 8 -8 24 10 11 -10 -11 -14 15 17 -17 23 -19 20 -3 22 -4 -1 26 -16 -7 -28 -20 -15
right_child=-2 19 21 -5 5 6 7 -9 9 12 -12 -13 13 29 25 16 -18 18 28 -21 -22 -23 -24 -25 -26 -27 27 -29 -30 -31
leaf_value=-0.051542367986036342 0.14658454029537807 0.14778156780768045 0.14830363510991493 0.15558890281682847 0.022377784859018354 -0.051341816829002622 0.023499846406138322 -0.05169665312002323 -0.051340100111209479 -0.051352192372568967 -0.051407307177267408 0.11189782180187056 0.01883643318666773 -0.051364197520175937 -0.051323683390909383 -0.051440091165081116 0.03558892791808576 0.011132885858564557 -0.051346429703931773 0.14733342669602079 0.15120930228980517 0.1473126603919663 0.14927785144452291 -0.05133315473635091 -0.05159953754336824 -0.051398114353673433 -0.051394360760580765 -0.051569474731988134 -0.051452138851641398 -0.051476731157570059
leaf_weight=1.0976639669388593 22.025580048561096 5.1488981395959863 5.3629518598318082 7.1942945420742026 0.67765959352254768 34.550718681886792 0.66471560858189949 0.80606107413768768 1.2183844316750789 11.299225430935619 2.2487935852259398 0.61194667033851136 0.7083839457482094 1.1069447714835408 104.32527140714228 0.59693183004855999 0.57262072712182999 0.79899730719625939 4.1976713147014371 5.6049055457115164 5.7536579221487054 4.9326219856739035 4.4539590775966644 18.186947859823707 0.63054094836115737 7.4902111068367949 1.0511480625718821 0.82140508107841004 1.2514036651700733 1.7887178380042312
leaf_count=38 98 23 24 33 26 1363 21 26 48 443 85 22 22 43 4153 22 18 30 165 25 26 22 20 720 21 284 40 28 46 65
internal_value=0 -0.0169555 -0.0294717 -0.0423289 -0.0495677 -0.0470779 -0.0478964 -0.0177117 -0.0486886 -0.0434883 -0.0268883 0.00323631 -0.0480318 -0.0376219 -0.0506135 -0.0476187 -0.0088301 -0.0493954 -0.0433778 0.148824 0.149591 0.148266 0.148746 -0.0513451 -0.0513527 -0.0513287 -0.0513485 -0.0514712 -0.0513707 -0.0514337
internal_weight=0 235.154 218.646 203.897 196.702 58.1846 57.507 1.47078 56.0362 18.9824 4.07912 1.83033 14.9033 3.60405 138.518 26.7022 1.16955 25.5327 6.24807 16.5075 10.9026 14.7495 9.81691 19.2846 37.0538 111.815 36.4233 1.87255 5.44907 2.89566
internal_count=8000 7902 7828 7762 7729 2253 2227 47 2180 728 155 70 573 130 5476 1039 40 999 241 74 49 66 44 758 1452 4437 1431 68 211 108
is_linear=0
shrinkage=0.05


Tree=7
num_leaves=31
num_cat=0
split_feature=3 6 4 7 9 9 4 4 5 3 4 1 1 3 3 5 5 5 5 1 4 4 5 3 3 5 1 5 5 4
split_gain=188.863 87.0607 61.0125 56.765 69.9558 56.4792 54.3096 31.7134 2.45605 2.09172 1.43457 0.348791 1.14789 0.302044 1.16902 1.62996 0.806786 0.296429 1.6935 0.277818 0.130668 0.730236 0.819425 0.222097 1.27094 0.00150405 1.39523e-05 1.13789e-05 9.90962e-06 7.97582e-06
threshold=-0.88286701389853162 1.0000000180025095e-35 -2.4213338759785112 1.0000000180025095e-35 1.0000000180025095e-35 1.0000000180025095e-35 2.2433902015028573 1.8320919495098762 1.5482719198511183 6.0589770092781992 2.6446567888130827 1.1224459521640169 1.2224380194192876 -0.54818590390206412 -0.57049797790182855 -0.41556322795748207 1.5954039633985246 -1.3739147800880789 -1.4367575048179539 -0.77740332568624149 -1.1071858025375239 -1.1272491319030349 0.46423491826077073 0.95787909108203961 0.92441098008239286 1.5168505574861808 0.92246181765346102 1.4068757892088992 1.4854291951212431 0.5380072054343995
decision_type=2 2 2 2 2 2 2 2 2 2 2 2 2 2 2 2 2 2 2 2 2 2 2 2 2 2 2 2 2 2
left_child=3 2 9 4 6 7 8 13 11 19 -8 26 -13 14 16 -16 17 18 -4 -2 21 23 -23 24 -15 -6 27 -1 -22 -17
right_child=1 -3 5 -5 25 -7 10 -9 -10 -11 -12 12 -14 20 15 29 -18 -19 -20 -21 28 22 -24 -25 -26 -27 -28 -29 -30 -31
leaf_value=-0.051263436192954814 0.095698885165516057 0.13998107402772345 -0.051265343111694617 0.13341550097864757 0.13514950634127226 0.13438575759375943 0.080549984147191847 0.1071705315807191 0.026713769630075893 0.13162461983491899 0.12624113826745495 0.026007035322476332 -0.051361416716470945 -0.051300577624095817 0.028159491718586772 -0.051275238623666508 -0.0056639353569568722 -0.051280263557303231 0.05001832566172662 0.064831482232600643 -0.051257268443140935 -0.051367898623034786 0.03267753516401873 -0.05126309177792409 0.025969030577435593 0.13405642382219315 -0.051467654126914557 -0.051474542582973404 -0.051319803073250514 -0.051520758081568085
leaf_weight=17.052997695282119 1.1927517354488375 7.344017267227172 2.5246210601180796 22.963086903095245 6.0593754351139051 4.4382858574390402 2.6499394103884688 3.2978296242654315 1.1303364541381586 4.0312553569674492 4.8842139057815075 0.64597014710307066 1.8593801334500311 3.077250353991992 1.2504407688975336 0.7020782995969046 1.0884661339223374 25.479517417028546 0.4933620709925951 1.8746523354202498 99.854464147239923 0.56859700381755718 0.5919331256300211 19.598721163347363 0.6434418037533759 6.5474858582019806 0.95378338173031707 0.66314082033932109 6.7642880734056225 0.62547518312931061
leaf_count=710 14 32 105 98 26 19 36 31 24 19 27 25 73 125 39 29 37 1050 20 31 4174 22 18 816 20 28 35 24 271 22
internal_value=0 -0.0287285 -0.0356854 0.0700875 0.0358278 -0.0416481 -0.00589425 -0.0463388 -0.0450974 0.107949 0.11017 -0.0489306 -0.031413 -0.0494396 -0.0450977 -0.0128055 -0.0479116 -0.0495252 -0.0347081 0.0768342 -0.0505048 -0.0472105 -0.00850018 -0.049137 -0.0379379 0.134582 -0.0512814 -0.0512713 -0.0512612 -0.0513909
internal_weight=0 185.441 178.097 65.4097 42.4466 170.999 29.8398 166.56 22.3056 7.09866 7.53415 21.1753 2.50535 163.263 32.164 2.57799 29.586 28.4975 3.01798 3.0674 131.099 24.4799 1.16053 23.3194 3.72069 12.6069 18.6699 17.7161 106.619 1.32755
internal_count=8000 6894 6862 1106 1008 6798 954 6779 891 64 63 867 98 6748 1302 90 1212 1175 125 45 5446 1001 40 961 145 54 769 734 4445 51
is_linear=0
shrinkage=0.05


Tree=8
num_leaves=31
num_cat=0
split_feature=3 8 6 7 9 8 9 2 2 4 4 3 3 4 1 3 4 3 2 2 1 1 2 2 3 4 4 4 1 3
split_gain=171.756 99.3117 87.4024 47.7843 60.5171 60.4825 45.1927 0.812877 3.55117 0.529086 0.932189 0.30748 1.17424 1.42505 0.384525 1.68409 0.127679 0.750226 1.03494 5.03919 0.12665 1.224 0.00646615 0.00236817 0.000226399 6.57e-05 6.0287e-05 1.57615e-05 1.28109e-05 1.03903e-05
threshold=-0.88286701389853162 1.0000000180025095e-35 1.0000000180025095e-35 1.0000000180025095e-35 1.0000000180025095e-35 1.0000000180025095e-35 1.0000000180025095e-35 1.1083671232519359 1.2431688944630315 0.44772222328959882 0.40759556455857643 -0.54818590390206412 -0.57049797790182855 0.51794387606888859 -1.3773557292178944 -0.62627816290123983 -1.1071858025375239 0.95787909108203961 -0.23965058885909737 -0.5766550168868555 0.92246181765346102 1.0224538849087461 0.097353839168660847 0.16475472477420869 -1.0167394578971185 2.2433902015028573 -2.4213338759785112 1.3906987034686282 0.92246181765346102 0.86305277658304058
decision_type=2 2 2 2 2 2 2 2 2 2 2 2 2 2 2 2 2 2 2 2 2 2 2 2 2 2 2 2 2 2
left_child=3 2 6 4 5 7 11 9 -9 10 -1 12 14 -14 15 -2 17 18 19 29 -16 -22 -3 -15 -6 28 -19 -23 -11 -13
right_child=1 22 -4 -5 24 -7 -8 8 -10 25 -12 16 13 23 20 -17 -18 26 -20 -21 21 27 -24 -25 -26 -27 -28 -29 -30 -31
leaf_value=-0.051225473052744032 -0.051244732591019818 0.12760212399946202 0.12824673729233185 0.12299701779563932 0.12377626828008557 0.12605256311206883 0.12411128799208299 0.073337487293890516 -0.05130426422370328 -0.051229385933275619 0.033313893620544092 -0.051344504458659707 -0.051293497067592154 0.021496779026191806 -0.051226408248434274 0.05734635681395428 -0.051198534565673907 -0.051583023844684529 -0.051360293800159357 0.12354984014993642 0.018431933337757438 -0.051214077894210147 0.12503304817593114 0.025724706896846895 0.12420851818203271 -0.051684156660866842 -0.051206211450904648 -0.05150191245887601 -0.051400737329148606 -0.051625121105858075
leaf_weight=0.8606353066861725 1.593494823202491 5.0021302551031095 7.607717514038085 23.643514275550842 8.185034826397894 6.6994307637214652 3.8482286334037772 0.75065521523356382 2.3938298728317022 15.880149208009248 0.52499295026063919 0.96687767282128356 1.2222458217293017 0.68115653842687585 20.675329782068733 0.46013927832246437 101.60450917109847 1.1240247003734136 2.2900039348751333 0.57166636921465386 0.71495181322097678 4.7982915695756674 4.799047440290451 0.64466815069317818 4.8092489242553702 0.88014520891010661 19.077808795496821 0.5279409885406493 1.1712525691837061 0.5006866343319416
leaf_count=37 68 21 32 98 34 28 16 21 98 683 14 39 50 20 889 19 4447 38 91 23 26 208 20 20 20 28 831 19 45 17
internal_value=0 -0.0283888 -0.0373673 0.0661021 0.0341916 -0.00579889 -0.0451784 -0.045125 -0.0215496 -0.0489626 -0.0191948 -0.0493159 -0.0448816 -0.0123492 -0.0477629 -0.0269137 -0.0504169 -0.0471794 -0.0282909 -0.00238451 -0.0493655 -0.0429969 0.126344 0.0235526 0.123936 -0.0512629 -0.0512272 -0.0512426 -0.0512412 -0.0514402
internal_weight=0 178.711 168.91 65.7989 42.1554 29.1611 161.302 22.4617 3.14449 19.3172 1.38563 157.454 31.3182 2.54807 28.7701 2.05363 126.136 24.5311 4.32923 2.03923 26.7165 6.04118 9.80118 1.32582 12.9943 17.9315 20.2018 5.32623 17.0514 1.46756
internal_count=8000 6894 6853 1106 1008 954 6821 926 119 807 51 6805 1319 90 1229 87 5486 1039 170 79 1142 253 41 40 54 756 869 227 728 56
is_linear=0
shrinkage=0.05


Tree=9
num_leaves=31
num_cat=0
split_feature=3 8 6 9 7 9 8 5 1 1 3 3 5 5 5 5 3 3 3 3 2 5 3 1 3 5 5 3 5 1
split_gain=157.154 89.9877 79.6368 41.4936 40.7641 52.9574 54.461 2.37817 0.347523 1.05316 0.319308 1.17267 1.53163 0.841178 0.309555 1.66428 0.115258 1.09626 0.188947 1.27503 0.00442246 0.000808456 3.87495e-05 1.34875e-05 1.37973e-05 7.59487e-06 7.00058e-06 5.94811e-06 5.05339e-06 3.91947e-06
threshold=-0.88286701389853162 1.0000000180025095e-35 1.0000000180025095e-35 1.0000000180025095e-35 1.0000000180025095e-35 1.0000000180025095e-35 1.0000000180025095e-35 1.5482719198511183 1.1224459521640169 1.2224380194192876 -0.54818590390206412 -0.57049797790182855 -0.41556322795748207 1.5954039633985246 -1.3739147800880789 -1.4367575048179539 0.8072725915836293 0.82400664708345261 0.95787909108203961 0.94114503558221629 0.097353839168660847 1.5168505574861808 3.6381169803037507 0.92246181765346102 -1.6358995113905832 1.4068757892088992 1.4068757892088992 0.92441098008239286 1.4068757892088992 0.92246181765346102
decision_type=2 2 2 2 2 2 2 2 2 2 2 2 2 2 2 2 2 2 2 2 2 2 2 2 2 2 2 2 2 2
left_child=4 2 3 10 5 6 7 8 23 -10 11 13 -13 14 15 -2 26 -18 19 27 -3 -7 -20 24 -1 -26 -12 -19 29 -16
right_child=1 20 -4 -5 -6 21 -8 -9 9 -11 16 12 -14 -15 28 -17 17 18 22 -21 -22 -23 -24 -25 25 -27 -28 -29 -30 -31
leaf_value=-0.051414977052276406 -0.051155893372635854 0.11831804219516023 0.11884507575890542 0.11546648797859421 0.11454880252263114 0.11572768972257606 0.11705166402167724 0.025924427998490918 0.021523501030179096 -0.051255840821308012 -0.051137602033794728 0.026666966021903361 -0.051311296237320739 -0.0034228001904384889 -0.051149697843359411 0.049586293415514134 0.0093679164128917577 -0.051163544809287975 -0.051144666951213981 0.024392394292007458 0.11621704421760451 0.11494627384128092 -0.05141285436599527 -0.051367838981910496 -0.051157988639135656 -0.051338423723784693 -0.051187381287446411 -0.051333944938073507 -0.051254377866089301 -0.051201250901471408
leaf_weight=0.56964245624841225 2.3771740142256026 5.1215168982744199 7.7938014864921561 3.9272754043340674 24.104779213666916 6.3785452395677549 6.849603831768035 1.1252218615263689 0.68533875979483072 1.809473132714629 86.050580797716975 1.2731222882866862 1.2460446432232846 1.0393650233745564 17.362161457538612 0.49539584293962491 0.82381706498563545 3.0564210247248442 19.876675888895992 0.65793229267001141 4.9020146578550339 6.8805782347917557 1.4447817523032416 0.93809521570801635 15.772731065750129 0.60559304244816381 7.6943361219018689 0.61521226540207852 1.5382875315845002 4.680857937783002
leaf_count=22 108 21 32 16 98 26 28 24 26 77 3960 39 51 37 792 20 34 138 910 23 20 28 55 37 716 24 341 25 65 207
internal_value=0 -0.0280916 -0.0370895 -0.0449731 0.0628079 0.0328377 -0.00573198 -0.0448381 -0.0487449 -0.0312629 -0.0491672 -0.0445537 -0.0119031 -0.0475454 -0.049279 -0.0337822 -0.050319 -0.0474057 -0.0492291 -0.0397061 0.117291 0.115322 -0.0511628 -0.0511833 -0.0511731 -0.0511647 -0.0511417 -0.0511921 -0.0511668 -0.0511606
internal_weight=0 171.977 161.953 154.159 65.7196 41.6148 28.3557 21.5061 20.3809 2.49481 150.232 30.0124 2.51917 27.4932 26.4539 2.87257 120.22 26.4748 25.651 4.32957 10.0235 13.2591 21.3215 17.8861 16.948 16.3783 93.7449 3.67163 23.5813 22.043
internal_count=8000 6894 6853 6821 1106 1008 954 926 902 103 6805 1319 90 1229 1192 128 5486 1185 1151 186 41 54 965 799 762 740 4301 163 1064 999
is_linear=0
shrinkage=0.05


Tree=10
num_leaves=31
num_cat=0
split_feature=3 8 5 7 9 8 9 5 5 3 3 3 4 4 3 5 5 1 2 3 4 4 1 2 3 3 4 5 5 5
split_gain=144.353 82.0826 52.9288 35.2361 46.8011 49.3796 9.89791 3.33518 2.28995 1.06933 1.03016 2.21118 2.00753 2.19378 1.83519 1.54594 0.773288 1.99312 0.692824 0.978877 0.656538 0.603048 0.356232 1.02025 0.19347 1.35947 1.3676 0.324406 1.5463 0.173619
threshold=-0.88286701389853162 1.0000000180025095e-35 1.4697185139387743 1.0000000180025095e-35 1.0000000180025095e-35 1.0000000180025095e-35 1.0000000180025095e-35 1.8310641811355566 1.5482719198511183 0.34987507458845696 2.0734827910702651 0.087708205091224026 0.19693060622070802 0.62829218757920036 -0.59838807040153419 1.6896680504933375 1.4068757892088992 -0.77740332568624149 0.83876358082972524 -0.14656857190630321 1.7919652907788535 0.046455635979373529 1.1224459521640169 1.2431688944630315 -0.54818590390206412 -0.57049797790182855 0.51794387606888859 -1.3739147800880789 -1.4367575048179539 0.85700194782249084
decision_type=2 2 2 2 2 2 2 2 2 2 2 2 2 2 2 2 2 2 2 2 2 2 2 2 2 2 2 2 2 2
left_child=3 2 16 4 5 8 7 10 22 -9 11 12 18 -14 -15 -13 20 -18 19 21 24 -4 -1 -24 25 27 -27 28 -2 -26
right_child=1 -3 6 -5 -6 -7 -8 9 -10 -11 -12 15 13 14 -16 -17 17 -19 -20 -21 -22 -23 23 -25 29 26 -28 -29 -30 -31
leaf_value=-0.051124269492648304 -0.051090069335572919 0.10984967009627447 0.019127606695756218 0.10756258385731017 0.10821073716675199 0.10965025236356443 0.10825261560173238 0.031943912745568605 0.024200427711091307 0.088346748504686254 0.054901095853299643 -0.051089491537981084 -0.051134061750442099 0.051383932109981323 -0.051172698325917899 0.01930295702214184 0.03634309221321675 -0.051134086849470878 0.071401181863616242 -0.012137726228035543 -0.0053952499503044336 0.068468439706958581 0.020570651209249294 -0.051194398871904405 -0.051086110434602511 -0.051220607198173645 0.025490669040242522 -0.051096780771359401 0.044890823410975396 -0.04577565819792187
leaf_weight=17.032894242554914 2.1880963351577525 10.163339883089064 1.150293240323663 24.378888875246048 13.419319376349447 6.9436446428298941 3.9756053537130347 1.4569547120481723 1.1445942874997843 1.9855203498154876 1.1348748188465823 2.3947152141481634 1.680930767208338 1.6564243882894518 0.59214426763355721 1.1567278653383253 0.95645152218639884 2.0399656537920228 1.3005332369357345 1.0360725298523958 0.86153150163590808 1.3414429798722265 0.69411809928715174 1.728562608361244 86.185292975977063 1.0563050080090755 1.291223185136914 20.532562885433435 0.51919989474118367 18.737454630434513
leaf_count=799 105 41 32 98 54 28 16 34 24 17 19 115 78 37 27 32 23 95 17 37 25 19 26 77 4150 46 38 981 20 890
internal_value=0 -0.0278098 -0.0368227 0.0599681 0.0316425 -0.0056614 0.0372734 0.0205628 -0.0445292 0.0644754 0.00931865 0.0051161 0.018611 -0.00792489 0.0243764 -0.0281622 -0.048327 -0.0232115 0.040207 0.0287071 -0.0488999 0.0456906 -0.0485726 -0.0306331 -0.0491871 -0.0452888 -0.0090267 -0.0489517 -0.032683 -0.0501378
internal_weight=0 165.394 155.23 65.342 40.9631 27.5438 20.8622 16.8866 20.6002 3.44248 13.4442 12.3093 8.75784 3.9295 2.24857 3.55144 134.368 2.99642 4.82834 3.52781 131.372 2.49174 19.4556 2.42268 130.51 25.5874 2.34753 23.2399 2.7073 104.923
internal_count=8000 6894 6853 1106 1008 954 480 464 926 51 413 394 247 142 64 147 6373 118 105 88 6255 51 902 103 6230 1190 84 1106 125 5040
is_linear=0
shrinkage=0.05


Tree=11
num_leaves=31
num_cat=0
split_feature=3 8 6 9 7 9 8 5 1 3 3 3 5 5 5 5 4 4 2 3 3 2 5 4 4 4 5 4 5 2
split_gain=132.91 75.1761 69.8889 35.6976 30.7911 41.7 45.0255 2.20778 0.36493 1.02812 0.342141 1.16399 1.43858 0.820414 0.32634 1.46211 0.146387 0.835658 0.898361 0.255568 1.32631 0.00253871 0.000463273 5.27769e-05 4.29905e-05 2.22487e-05 2.22184e-05 1.65283e-05 9.64062e-06 8.8643e-06
threshold=-0.88286701389853162 1.0000000180025095e-35 1.0000000180025095e-35 1.0000000180025095e-35 1.0000000180025095e-35 1.0000000180025095e-35 1.0000000180025095e-35 1.5482719198511183 1.1224459521640169 -0.98327134689747175 -0.54818590390206412 -0.57049797790182855 -0.41556322795748207 1.5954039633985246 -1.3739147800880789 -1.4367575048179539 -1.1071858025375239 -1.1272491319030349 -0.10484881764800176 0.95787909108203961 0.92441098008239286 0.097353839168660847 1.5168505574861808 2.2433902015028573 -2.4213338759785112 1.7919652907788535 1.5011398763037118 0.5380072054343995 1.4068757892088992 1.2431688944630315
decision_type=2 2 2 2 2 2 2 2 2 2 2 2 2 2 2 2 2 2 2 2 2 2 2 2 2 2 2 2 2 2
left_child=4 2 3 10 5 6 7 8 23 29 11 13 -13 14 15 -2 17 19 -19 20 -12 -3 -7 -1 -21 28 -18 -14 -16 -10
right_child=1 21 -4 -5 -6 22 -8 -9 9 -11 16 12 27 -15 25 -17 26 18 -20 24 -22 -23 -24 -25 -26 -27 -28 -29 -30 -31
leaf_value=-0.051047406184701327 -0.051045969082334323 0.10439871384989717 0.10780580116263519 0.10274043995182609 0.10169237640340011 0.10254778568393991 0.1034598124795251 0.022619036797857095 -0.051409676130211079 0.021398112960797758 -0.051106287242593598 0.025128643350823376 -0.051056862588153631 -0.003780503705866434 -0.051042158546863406 0.040830635451057071 -0.051027128052247385 0.042870237864932055 -0.051311337425478089 -0.05137593477881465 0.031034635318213485 0.10282315396823874 0.10196136290063457 -0.051458270441592374 -0.05103517415375039 -0.051384157365511454 -0.051131263530314754 -0.051431915182894167 -0.051177972504316153 -0.051164549206595293
leaf_weight=15.396104598417889 2.158781480044127 5.2371862679719907 7.9469540864229193 3.9952788949012747 24.493213921785355 6.494137763977049 6.9897521138191214 1.162898102775215 0.55130651593208346 0.68838736414909263 2.6237360835075445 1.2972593158483507 0.58421715162694343 1.0465620812028635 19.55155196972192 0.54167389497161877 82.643658740445971 0.52981163747608662 0.48496004939079174 0.98171873390675202 0.6046969350427388 4.9954123049974442 6.9960071891546249 0.82340566441416818 16.185746593400832 0.51414619944989581 5.4606274738907805 0.59083644486963749 1.4002185389399517 1.1141414232552049
leaf_count=769 108 21 32 16 98 26 28 24 21 31 125 39 29 37 981 20 4192 20 20 38 20 20 28 30 816 20 255 22 63 51
internal_value=0 -0.0274719 -0.0364667 -0.0445868 0.0574971 0.0305804 -0.0055922 -0.0442139 -0.0483983 -0.0300008 -0.048877 -0.043911 -0.0111708 -0.0471214 -0.0489984 -0.0326168 -0.0501324 -0.0464242 -0.0021392 -0.0486275 -0.035721 0.10363 0.102244 -0.0510683 -0.0510547 -0.0510592 -0.0510336 -0.0512454 -0.0510512 -0.0512457
internal_weight=0 159.375 149.142 141.195 64.7094 40.2161 26.726 19.7362 18.5733 2.35384 137.2 27.6852 2.47231 25.2129 24.1664 2.70046 109.515 21.4107 1.01477 20.3959 3.22843 10.2326 13.4901 16.2195 17.1675 21.4659 88.1043 1.17505 20.9518 1.66545
internal_count=8000 6894 6853 6821 1106 1008 954 926 902 103 6805 1319 90 1229 1192 128 5486 1039 40 999 145 41 54 799 854 1064 4447 51 1044 72
is_linear=0
shrinkage=0.05


Tree=12
num_leaves=31
num_cat=0
split_feature=3 8 5 7 9 8 9 5 5 3 3 3 4 4 4 5 3 5 1 4 2 2 3 1 2 3 3 2 1 5
split_gain=122.828 69.2271 47.3898 27.1563 37.4116 41.2439 7.87437 2.62857 2.13091 0.849495 0.821713 1.88971 1.61784 1.97507 1.56569 1.41311 1.35176 0.755635 1.77481 0.635272 0.537468 0.787356 1.38684 0.37387 1.01383 0.208511 1.35194 1.35921 3.42101 0.341329
threshold=-0.88286701389853162 1.0000000180025095e-35 1.4697185139387743 1.0000000180025095e-35 1.0000000180025095e-35 1.0000000180025095e-35 1.0000000180025095e-35 1.8310641811355566 1.5482719198511183 0.34987507458845696 2.0734827910702651 0.087708205091224026 0.19693060622070802 0.62829218757920036 0.70854550504124536 1.6896680504933375 -0.60396608890147541 1.4068757892088992 -0.77740332568624149 1.7919652907788535 0.83876358082972524 -0.71145678809797042 -0.25255092340518454 1.1224459521640169 1.2431688944630315 -0.54818590390206412 -0.57049797790182855 -0.10484881764800176 0.4724975150047141 -1.3739147800880789
decision_type=2 2 2 2 2 2 2 2 2 2 2 2 2 2 2 2 2 2 2 2 2 2 2 2 2 2 2 2 2 2
left_child=3 2 17 4 5 8 7 10 23 -9 11 12 20 -14 -15 -13 -16 19 -19 25 21 -4 -23 -1 -25 26 29 -28 -29 -2
right_child=1 -3 6 -5 -6 -7 -8 9 -10 -11 -12 15 13 14 16 -17 -18 18 -20 -21 -22 22 -24 24 -26 -27 27 28 -30 -31
leaf_value=-0.051015088187362459 -0.031473678507703932 0.098354893676266222 0.053954542993705071 0.096694097993120148 0.097168690415893169 0.098209131294424226 0.097164460247843532 0.028614959388118533 0.021164791197451363 0.078787503875171014 0.049111413256266327 -0.05098537987738877 -0.051035039185143662 0.072260654205955094 -0.051502355125663563 0.017694501117694612 0.054599491973441855 0.032698898533013832 -0.051023932096071617 -0.0050205696822236637 0.063626795529155691 0.036008320261634356 -0.051077035449387125 0.021575055953715359 -0.051102890497789488 -0.049938774618475526 -0.051581113402177463 0.11139500306429112 -0.051547368694872808 -0.050990307816275039
leaf_weight=15.444151695817718 2.5467618834227386 10.241807430982588 1.4692393913865092 24.47136178612709 13.484810516238211 6.9949797391891471 3.9951247721910468 1.4576066397130483 1.1801999788731325 2.0029941741377115 1.1434051152318705 2.1731191687285896 1.5356220602989199 0.92817752435803447 0.82328833080828201 1.1428292039781807 0.47245577536523309 0.96232307143509421 1.8497112840414036 0.83065658435225387 1.3139962330460546 1.319909889250994 0.69942046701908633 0.68466888368129675 1.6039750669151542 95.306148516014218 1.0173005126416685 0.61240191757678875 0.67959930188953876 18.61644577793777
leaf_count=799 125 41 26 98 54 28 16 34 24 17 19 115 78 12 30 32 22 23 95 25 17 28 34 26 77 5040 38 20 26 981
internal_value=0 -0.027216 -0.0362159 0.0553269 0.029629 -0.0055246 0.0341873 0.0189221 -0.0438906 0.0576548 0.0086284 0.00473143 0.0171425 -0.00742251 0.022692 -0.0273151 -0.0128154 -0.0479921 -0.0223726 -0.0485944 0.0363724 0.0261068 0.00584521 -0.0482203 -0.0293606 -0.0488991 -0.0446778 -0.00835167 0.0256865 -0.0486417
internal_weight=0 153.14 142.899 63.8641 39.3928 25.908 20.4772 16.4821 18.913 3.4606 13.0215 11.8781 8.56211 3.75954 2.22392 3.31595 1.29574 122.421 2.81203 119.609 4.80257 3.48857 2.01933 17.7328 2.28864 118.779 23.4725 2.3093 1.292 21.1632
internal_count=8000 6894 6853 1106 1008 954 480 464 926 51 413 394 247 142 64 147 52 6373 118 6255 105 88 62 902 103 6230 1190 84 46 1106
is_linear=0
shrinkage=0.05


Tree=13
num_leaves=31
num_cat=0
split_feature=3 8 6 7 5 8 5 4 4 5 4 5 5 5 4 2 1 3 3 5 5 5 4 5 4 3 5 2 1 4
split_gain=113.675 63.8884 61.8275 24.1401 22.8663 37.5266 10.7412 15.3461 2.41854 2.27016 1.23026 2.3784 1.08086 0.77488 0.717223 0.425085 1.18773 0.210057 1.3105 1.29921 0.358841 1.40233 0.195453 0.225189 0.165667 0.901979 3.20112 0.00153916 3.60462e-05 3.52407e-05
threshold=-0.88286701389853162 1.0000000180025095e-35 1.0000000180025095e-35 1.0000000180025095e-35 1.2340582962017421 1.0000000180025095e-35 1.5639826010335869 0.87908380464809099 1.3204770506893391 1.6425360069459309 1.6314586558547635 1.0141087596471789 2.0588690582813549 1.5325612386686494 2.383833507061436 1.1757680088574836 1.1724419857916522 -0.54818590390206412 -0.57049797790182855 -0.41556322795748207 -1.3739147800880789 -1.4367575048179539 1.9524719257029437 1.4854291951212431 -1.1071858025375239 0.95787909108203961 0.85700194782249084 0.097353839168660847 1.1224459521640169 -2.4213338759785112
decision_type=2 2 2 2 2 2 2 2 2 2 2 2 2 2 2 2 2 2 2 2 2 2 2 2 2 2 2 2 2 2
left_child=3 2 6 4 5 14 10 12 9 13 17 -12 -8 -6 15 28 -17 18 20 -20 21 -2 23 -10 25 26 -19 -3 -1 -27
right_child=1 27 -4 -5 8 -7 7 -9 22 -11 11 -13 -14 -15 -16 16 -18 24 19 -21 -22 -23 -24 -25 -26 29 -28 -29 -30 -31
leaf_value=-0.050947785150314367 -0.050953022869960174 0.094428868464404431 0.099194059329659801 0.092390475272582331 -0.050980040355262657 0.093702855482075242 -0.051112145157554703 0.085193865934568541 0.068517711377411597 0.069000809270412772 -0.051141495050180466 0.075272021652057333 0.031190361060681931 0.028869362411439503 0.004897980826645127 0.03311799439190613 -0.051068008336280425 -0.051068332581714296 0.02360142649172782 -0.051171576046908321 -0.050949818497485477 0.040006355747342716 0.091919000437030857 0.087970927206732039 -0.050930527844386279 -0.051262602444880602 0.05737810817299234 0.093200069576854477 -0.051397176323100251 -0.05094010517387252
leaf_weight=12.749598998576399 1.8866256512701514 5.2274406403303129 7.9801814258098593 24.333801686763763 0.69494605064392023 6.9654356241226187 5.2470394652336818 3.7772936597466469 2.687525609508155 2.1491126026958227 1.0133823212236155 0.58796390518546093 0.43174280039966095 0.53985414654016495 0.67697703652083951 0.59329570457339409 1.4258408546447752 2.626029619947079 1.3219736088067295 1.0363708920776833 18.48852945305407 0.5464718732982935 6.2307813819497824 3.3321472927927971 76.104984553530812 0.90003824792802412 0.91847475618123997 4.9723897725343704 0.46240509487688619 14.400673037394878
leaf_count=702 103 21 32 98 37 28 252 31 31 20 48 6 8 12 18 29 71 132 39 48 1016 20 26 16 4247 38 35 20 18 798
internal_value=0 -0.0269017 -0.0358727 0.0534066 0.028772 -0.00308213 -0.0442096 0.00709396 0.0753756 0.0379582 -0.0482581 -0.00472643 -0.0448549 -0.0160699 -0.0454598 -0.0476981 -0.0263311 -0.0488477 -0.0445914 -0.00925746 -0.0485743 -0.0305236 0.0857113 0.0792859 -0.0498912 -0.0456942 -0.022967 0.0938298 -0.0509635 -0.0509591
internal_weight=0 147.468 137.268 62.8417 38.5079 22.8736 129.288 9.45608 15.6344 3.38391 119.832 1.60135 5.67878 1.2348 15.9081 15.2311 2.01914 118.23 23.28 2.35834 20.9216 2.4331 12.2505 6.01967 94.9502 18.8452 3.5445 10.1998 13.212 15.3007
internal_count=8000 6894 6853 1106 1008 866 6821 291 142 69 6530 54 260 49 838 820 100 6476 1226 87 1139 123 73 47 5250 1003 167 41 720 836
is_linear=0
shrinkage=0.05


Tree=14
num_leaves=31
num_cat=0
split_feature=3 6 4 9 7 9 4 4 5 3 4 2 1 3 3 5 5 5 1 1 4 3 5 5 5 5 1 3 5 4
split_gain=105.369 49.5288 35.3338 32.7616 21.7066 31.1228 29.0585 19.0734 1.88783 0.764113 0.535317 0.422209 1.15993 0.388613 1.13166 1.2708 0.803528 0.362875 1.37388 0.288696 0.177174 0.892669 2.72708 0.000636437 4.1789e-05 3.60947e-05 3.31125e-05 1.47199e-05 1.43633e-05 1.30884e-05
threshold=-0.88286701389853162 1.0000000180025095e-35 -2.4213338759785112 1.0000000180025095e-35 1.0000000180025095e-35 1.0000000180025095e-35 2.2433902015028573 1.8320919495098762 1.5482719198511183 6.0589770092781992 2.6446567888130827 1.1757680088574836 1.1724419857916522 -0.54818590390206412 -0.57049797790182855 -0.41556322795748207 1.5954039633985246 -1.3739147800880789 0.92246181765346102 -0.72740729205859178 -1.1071858025375239 0.95787909108203961 0.85700194782249084 1.4854291951212431 1.4854291951212431 -1.4367575048179539 1.1224459521640169 0.90209890608262844 1.8310641811355566 0.5380072054343995
decision_type=2 2 2 2 2 2 2 2 2 2 2 2 2 2 2 2 2 2 2 2 2 2 2 2 2 2 2 2 2 2
left_child=4 2 9 7 5 6 8 13 11 19 -8 26 -13 14 16 -16 17 18 25 -2 21 22 27 -7 -22 -4 -1 -15 -26 -17
right_child=1 -3 3 -5 -6 23 10 -9 -10 -11 -12 12 -14 20 15 29 -18 -19 -20 -21 24 -23 -24 -25 28 -27 -28 -29 -30 -31
leaf_value=-0.05090400053851938 0.070183228971881034 0.094570382243404097 -0.050901606430886051 0.08975467449383788 0.088649477335531676 0.089853338093871735 0.056039267015961972 0.071210415262408316 0.016400560269263127 0.087053285528611968 0.083714990065537606 0.031655036438633488 -0.051010242151803956 -0.050952846308274763 0.021926643406417295 -0.050953707964261498 -0.0034222596650292088 -0.050906205262774021 0.038613995111984351 0.039344153343669162 -0.050882313016869997 -0.050900680271971192 0.045725653671244343 0.089144035988872508 -0.050994509478382244 -0.051447101263198541 -0.051343129237674472 -0.051251162936117527 -0.051229512335883978 -0.051304468861148339
leaf_weight=12.922784510999922 1.4634503740817311 7.9523858278989783 1.4605185464024544 4.6822167187929145 24.098352372646332 5.1779226362705222 2.656212491914629 3.429953144863247 1.2416143529117096 4.2312115393579006 5.1058278921991587 0.60363467410206739 1.4287604130804537 1.9776570014655623 1.3510209284722807 0.52489534765481838 1.0382141657173622 18.244986411184072 0.55668448098003853 1.5762892086058844 71.091009072959423 14.359302241355179 1.0279627703130243 8.1250449866056424 4.4801119379699221 0.38271474279464279 0.44403794780373651 0.52283461391925801 0.76058272272348393 0.5391006413847208
leaf_count=745 15 32 84 19 98 21 36 31 24 19 27 29 75 109 39 29 37 1050 27 30 4174 831 38 33 238 14 18 23 33 22
internal_value=0 -0.026658 -0.0338685 -0.0400326 0.0515841 0.0278951 -0.00564456 -0.045024 -0.0429083 0.0733148 0.0742442 -0.0476903 -0.0264581 -0.0483936 -0.0427275 -0.0102609 -0.0463435 -0.048502 -0.0302246 0.0541913 -0.0498428 -0.0453638 -0.0228312 0.0894201 -0.0508924 -0.0510149 -0.0509186 -0.0510152 -0.0510286 -0.0511314
internal_weight=0 141.653 133.701 126.43 61.8042 37.7058 24.4029 121.748 16.6408 7.27095 7.76204 15.3992 2.0324 118.318 24.0981 2.41502 21.6831 20.6449 2.39992 3.03974 94.2195 17.8878 3.52845 13.303 76.3317 1.84323 13.3668 2.50049 5.24069 1.064
internal_count=8000 6894 6862 6798 1106 1008 954 6779 891 64 63 867 104 6748 1302 90 1212 1175 125 45 5446 1001 170 54 4445 98 763 132 271 51
is_linear=0
shrinkage=0.05


Tree=15
num_leaves=31
num_cat=0
split_feature=3 8 6 7 5 8 5 4 4 5 4 5 3 4 1 1 1 3 3 2 2 5 5 4 5 4 3 5 2 5
split_gain=97.8413 55.6106 53.4292 19.6244 18.7136 32.4411 9.88102 13.1062 2.0367 1.79565 1.10074 2.18443 0.751454 0.621478 0.595445 0.454005 1.91149 0.226572 1.30244 1.2767 2.79765 0.376386 1.34357 0.178779 0.194227 0.17837 0.929417 2.73529 0.00155625 6.07737e-05
threshold=-0.88286701389853162 1.0000000180025095e-35 1.0000000180025095e-35 1.0000000180025095e-35 1.2340582962017421 1.0000000180025095e-35 1.5639826010335869 0.62829218757920036 1.3204770506893391 1.6425360069459309 1.6314586558547635 1.0455301220121165 -1.0780976613964708 2.383833507061436 -0.37743505666513 1.1224459521640169 1.1724419857916522 -0.54818590390206412 -0.57049797790182855 -0.10484881764800176 0.50175915280196703 -1.3739147800880789 -1.4367575048179539 1.9524719257029437 1.4854291951212431 -1.1071858025375239 0.95787909108203961 0.85700194782249084 0.097353839168660847 -0.38414186559254454
decision_type=2 2 2 2 2 2 2 2 2 2 2 2 2 2 2 2 2 2 2 2 2 2 2 2 2 2 2 2 2 2
left_child=3 2 6 4 5 13 10 -8 9 12 17 -12 -6 15 -9 -1 -17 18 21 29 -21 22 -2 24 -10 26 27 -19 -3 -20
right_child=1 28 -4 -5 8 -7 7 14 23 -11 11 -13 -14 -15 -16 16 -18 25 19 20 -22 -23 -24 -25 -26 -27 -28 -29 -30 -31
leaf_value=-0.050868432814116377 -0.050879318421768294 0.087628683838389052 0.090567515570390555 0.08537069544551236 0.028980754239817483 0.086920196700800811 -0.051018721495879826 0.092661755157145587 0.062622880623139407 0.06182735941617256 -0.051114530424651666 0.071855271995309014 -0.051109014897895426 0.00073348888711632096 0.054629383264771805 0.071500665762952359 -0.051013204677358398 -0.050964770597625081 -0.0518305557560442 0.093537807612309246 -0.0517329328766594 -0.050857859069901368 0.038390059784981834 0.084872681452184934 0.080828750869039193 -0.050840454754435715 -0.05087570610640877 0.047169806461616615 0.086381465235779775 -0.051032254425835546
leaf_weight=12.068377656862138 1.7420284878462555 5.1384139657020551 7.8901439905166617 23.780558884143829 0.53557086735963844 6.8355552554130545 4.6923075653612596 1.731029028072953 2.6537283733487111 2.1623279899358749 0.98947861418127903 0.56871892511844635 0.64632464945316226 0.7071541044861086 2.5381138157099485 0.4066894296556719 1.4661625400185583 2.3808363545686038 0.59157405607402325 0.68737045302986988 0.63999752514064312 16.758540403097868 0.55603424645960942 6.0908433273434639 3.2702843397855759 68.981547905132174 13.952115647494791 1.0118420682847498 4.8730669766664505 0.39934904687106643
leaf_count=726 103 21 32 98 16 28 246 15 31 20 49 5 33 18 30 16 78 132 19 23 24 1016 20 26 16 4247 836 35 20 21
internal_value=0 -0.026404 -0.0354084 0.0499617 0.0271068 -0.0030231 -0.0438162 0.00665743 0.0692517 0.0347403 -0.047956 -0.00623238 -0.0148167 -0.0449944 0.0700505 -0.0473139 -0.0244093 -0.0485596 -0.0439509 -0.00856455 0.0234947 -0.0482557 -0.0292799 0.0788577 0.0726732 -0.0497008 -0.0451683 -0.0216968 0.0870216 -0.0515088
internal_weight=0 136.123 126.111 60.6236 36.843 21.4839 118.221 8.96145 15.3591 3.34422 109.259 1.5582 1.1819 14.6484 4.26914 13.9412 1.87285 107.701 21.3749 2.31829 1.32737 19.0566 2.29806 12.0149 5.92401 86.3263 17.3448 3.39268 10.0115 0.990923
internal_count=8000 6894 6853 1106 1008 866 6821 291 142 69 6530 54 49 838 45 820 94 6476 1226 87 47 1139 123 73 47 5250 1003 167 41 40
is_linear=0
shrinkage=0.05


Tree=16
num_leaves=31
num_cat=0
split_feature=3 8 6 9 7 9 8 5 2 2 3 3 4 5 5 5 5 4 3 5 2 5 4 4 4 5 5 5 5 4
split_gain=90.9862 51.7472 49.8279 26.0694 17.8623 26.3848 30.565 1.73806 0.411508 1.04263 0.405404 1.12451 1.22257 1.76743 0.776397 0.368827 2.16062 0.17945 0.92907 2.36069 0.00120335 0.000975668 7.35078e-05 4.78877e-05 4.07227e-05 3.32001e-05 2.13457e-05 1.66347e-05 1.53489e-05 1.30246e-05
threshold=-0.88286701389853162 1.0000000180025095e-35 1.0000000180025095e-35 1.0000000180025095e-35 1.0000000180025095e-35 1.0000000180025095e-35 1.0000000180025095e-35 1.5482719198511183 1.1757680088574836 1.3105697800685794 -0.54818590390206412 -0.57049797790182855 0.51794387606888859 -0.38414186559254454 1.5954039633985246 -1.3739147800880789 -1.4210468236354854 -1.1071858025375239 0.95787909108203961 0.85700194782249084 0.097353839168660847 1.4854291951212431 2.2433902015028573 -2.4213338759785112 1.8320919495098762 1.4854291951212431 -0.41556322795748207 1.2340582962017421 -1.4524681860004229 1.3706353741031172
decision_type=2 2 2 2 2 2 2 2 2 2 2 2 2 2 2 2 2 2 2 2 2 2 2 2 2 2 2 2 2 2
left_child=4 2 3 10 5 6 7 8 22 -10 11 14 26 -14 15 16 28 18 19 -12 -3 -7 27 -20 -17 -19 -13 -1 -2 -29
right_child=1 20 -4 -5 -6 21 -8 -9 9 -11 17 12 13 -15 -16 24 -18 25 23 -21 -22 -23 -24 -25 -26 -27 -28 29 -30 -31
leaf_value=-0.050822380725219135 -0.050847411673901277 0.084477954456313578 0.08707145619439767 0.08422357077962718 0.082476379610640457 0.08398531635524048 0.083850440971919724 0.012999674673349044 0.025512802101438643 -0.050941242213150086 -0.050916896681871243 -0.051343765783036212 0.066098577638267694 -0.051261581450575744 -0.0041615018081071677 -0.050819653797317746 0.079008980064797854 -0.050797482103555891 -0.051199473138340362 0.037926775485020325 0.083373024920345401 0.083095544879018463 -0.051355004776209093 -0.050813539642702077 -0.051361456719708334 -0.050934170292037895 -0.050884861549251814 -0.050896919473548644 -0.05121499829958738 -0.051255073265215556
leaf_weight=11.107312834821643 1.6095238123089075 5.0653722286224347 7.7988412827253333 3.852919101715087 23.394002139568329 5.0488920956850034 6.7340438961982718 1.2861790768802155 0.65123095270246212 1.4145321827381847 2.2667972743511231 0.52952511794865131 0.8419293537735939 0.5182926934212444 1.0528786350041617 16.548210225999359 0.38266233541072381 64.484230974689126 0.85669386759400445 1.1157131381332872 4.7983274459838867 7.9044075012207031 0.73684160970151502 13.01421824097633 0.35423540696501632 4.7710816003382197 0.48594427295029097 0.70339032262563772 0.3448289129883052 0.39717876724898815
leaf_count=705 99 21 32 16 98 21 28 24 30 80 132 21 18 22 37 1050 13 4176 38 38 20 33 29 831 14 271 29 41 16 17
internal_value=0 -0.0261763 -0.0351655 -0.0435996 0.0484647 0.0263529 -0.00575619 -0.0427831 -0.0475629 -0.0268391 -0.0481106 -0.0421585 -0.00961118 0.0213802 -0.0459689 -0.0482568 -0.029639 -0.0496703 -0.0451078 -0.021612 0.0839404 0.0834424 -0.05087 -0.0508374 -0.050831 -0.0508069 -0.0511242 -0.0508408 -0.0509123 -0.0510262
internal_weight=0 130.692 120.829 113.03 59.378 35.984 23.0307 16.2967 15.0105 2.06576 109.177 22.668 2.37569 1.36022 20.2923 19.2395 2.33702 86.5087 17.2534 3.38251 9.8637 12.9533 12.9447 13.8709 16.9024 69.2553 1.01547 12.2079 1.95435 1.10057
internal_count=8000 6894 6853 6821 1106 1008 954 926 902 110 6805 1319 90 40 1229 1192 128 5486 1039 170 41 54 792 869 1064 4447 50 763 115 58
is_linear=0
shrinkage=0.05


Tree=17
num_leaves=31
num_cat=0
split_feature=3 8 6 7 4 5 5 4 8 5 4 5 5 2 4 3 3 2 1 5 5 4 3 5 4 5 2 5 4 4
split_gain=84.8736 48.2556 46.5717 16.2504 15.8189 12.3353 9.08172 11.3151 3.88806 16.8727 1.02371 1.99564 0.911384 0.632597 2.14017 0.24309 1.28616 1.18531 2.43849 0.393093 1.93763 0.193462 0.952828 2.37262 0.145842 0.248261 0.000939353 7.63166e-05 6.75345e-05 4.23929e-05
threshold=-0.88286701389853162 1.0000000180025095e-35 1.0000000180025095e-35 1.0000000180025095e-35 1.5612370030754741 1.5482719198511183 1.5639826010335869 0.87908380464809099 1.0000000180025095e-35 1.076951484377054 1.6314586558547635 1.2811903397491486 2.0588690582813549 1.1757680088574836 1.3606037094203616 -0.54818590390206412 -0.57049797790182855 -0.10484881764800176 0.4724975150047141 -1.3739147800880789 -1.4210468236354854 -1.1071858025375239 0.95787909108203961 0.85700194782249084 2.062820237213256 1.4697185139387743 0.097353839168660847 -0.41556322795748207 2.2433902015028573 -2.4213338759785112
decision_type=2 2 2 2 2 2 2 2 2 2 2 2 2 2 2 2 2 2 2 2 2 2 2 2 2 2 2 2 2 2
left_child=3 2 6 4 5 13 10 12 9 28 15 -12 -8 -1 -15 16 19 27 -19 20 -2 22 23 -17 25 -11 -3 -18 -6 -24
right_child=1 26 -4 -5 8 -7 7 -9 -10 24 11 -13 -14 14 -16 21 17 18 -20 -21 -22 -23 29 -25 -26 -27 -28 -29 -30 -31
leaf_value=-0.050793293546274057 -0.050857243133649727 0.081690459990899286 0.083994641447108734 0.079905326866961321 -0.050787884387096943 0.059795266454692131 -0.050932858793089321 0.072219669808461215 0.080900542276347132 0.054822558423440484 -0.051005670550139659 0.070129615272969528 0.027270457114287879 -0.050938834668547962 0.0933314177690346 -0.050871435501459839 -0.051847784729040058 0.083216349808438117 -0.051497363527386743 -0.050774939926880196 0.069582285152972156 -0.050759228124252376 -0.051139653892466552 0.039478292546929382 0.0795448622898179 0.076237106135445099 0.08070548940071387 -0.050925182532682516 -0.051291622911020046 -0.050767008193500655
leaf_weight=8.5122538013383728 1.7634049486368897 4.9784844517707807 7.6831781119108191 22.950554490089417 3.0666665863245757 3.8485283423215142 4.3946541091427189 3.6802198011428118 7.7825897186994544 2.3719212152063829 0.91580546367913374 0.54076463356614113 0.40706435963511456 1.0019699111580838 0.3457697546109556 2.1581225553527399 0.5536982249468565 0.73717026598751434 0.61715076770633459 15.187828123569487 0.41195639967919007 62.514358561486013 0.81584159098565479 1.0954739414155481 4.0366529263556004 3.1518698744475842 4.7112666815519333 0.37659844569861922 0.84971597231924523 11.828988574445246
leaf_count=561 110 21 32 98 203 34 252 31 33 32 50 4 8 58 17 132 18 21 26 1016 13 4247 38 35 19 16 20 22 35 798
internal_value=0 -0.0259702 -0.0349479 0.047214 0.0257577 -0.0161221 -0.0434096 0.0062548 0.0527626 0.0365135 -0.0476426 -0.00603312 -0.0443032 -0.0457539 -0.0139255 -0.0482606 -0.0432873 -0.00802033 0.0218286 -0.0479277 -0.0280492 -0.0495068 -0.044582 -0.020451 0.0723208 0.0670417 0.0812116 -0.0514743 -0.0508972 -0.0507911
internal_weight=0 125.372 115.682 57.9185 34.9679 13.7085 107.999 8.48194 21.2594 13.4768 99.5172 1.45657 4.80172 9.85999 1.34774 98.0606 19.6478 2.28462 1.35432 17.3632 2.17536 78.4128 15.8984 3.2536 9.56044 5.52379 9.68975 0.930297 3.91638 12.6448
internal_count=8000 6894 6853 1106 1008 670 6821 291 338 305 6530 54 260 636 75 6476 1226 87 47 1139 123 5250 1003 167 67 48 41 40 238 836
is_linear=0
shrinkage=0.05


Tree=18
num_leaves=31
num_cat=0
split_feature=3 6 4 9 4 7 9 4 5 3 1 5 1 1 3 3 5 5 4 5 5 4 4 5 3 3 1 4 5 5
split_gain=79.1369 36.8974 27.1659 25.6293 14.9482 14.9292 22.6268 21.6886 1.60577 0.549169 0.533308 1.30168 0.460592 2.04903 0.442362 1.09157 1.12526 0.746945 0.401961 0.396882 2.40766 0.207684 0.943875 1.14361 0.293819 1.34729 0.195418 0.00138391 0.000514797 7.21255e-05
threshold=-0.88286701389853162 1.0000000180025095e-35 -2.4213338759785112 1.0000000180025095e-35 1.8320919495098762 1.0000000180025095e-35 1.0000000180025095e-35 2.2433902015028573 1.7839321375881503 6.0589770092781992 -1.4273517628455297 1.108372846741992 1.1224459521640169 1.1724419857916522 -0.54818590390206412 -0.57049797790182855 -0.41556322795748207 1.5954039633985246 2.6446567888130827 -1.3739147800880789 -1.4053361424530164 -1.1071858025375239 -1.1272491319030349 0.68418445481533408 0.95787909108203961 0.92441098008239286 -0.72740729205859178 1.9524719257029437 1.5796932822160559 0.93555535373483489
decision_type=2 2 2 2 2 2 2 2 2 2 2 2 2 2 2 2 2 2 2 2 2 2 2 2 2 2 2 2 2 2
left_child=5 2 9 4 14 6 7 8 10 26 11 -1 28 -14 15 17 -17 19 -9 20 -4 22 24 -24 25 29 -2 -8 -12 -16
right_child=1 -3 3 -5 -6 -7 27 18 -10 -11 12 -13 13 -15 21 16 -18 -19 -20 -21 -22 -23 23 -25 -26 -27 -28 -29 -30 -31
leaf_value=-0.050721284239430786 0.060776705894739436 0.081268651001620354 -0.050861691234904416 0.078961240205760244 0.061585631359674903 0.077608710521210267 0.079172048343076257 0.048127552173129362 0.065947228271759833 0.076063746489515527 -0.050760604624594058 0.068532172300442354 0.079120645992928507 -0.05095805837876663 -0.050749031674129141 0.019606098468427612 -0.051037940782150903 -0.0046630894892876369 0.072818623576644134 -0.050741519866126454 0.093549357355278362 -0.050728935156586476 -0.050872687475228842 0.064313755880673465 -0.050729862982300679 0.03569643669860182 0.034598661811501362 0.078118407189200434 -0.052165323708243908 -0.051391954829521781
leaf_weight=0.65852013416588018 1.3815523199737074 7.5472625195980063 1.8043938046321275 4.4027144610881797 3.2294314745813599 22.460595846176147 6.5109972953796369 2.5179838240146628 0.33834651112556535 3.9428440667688847 10.419696424156427 0.35068117175251245 0.38265862688422103 1.44966359809041 1.4616725938394663 1.3894993644207718 0.94846407603472371 1.0625489614903916 4.772535003721714 15.004524921067061 0.34358411841095104 62.722139313817024 0.43176684062927861 0.43017462827265263 11.52470999304205 0.57191651873290528 1.4729805290698994 5.9776295125484467 0.69577636756002981 0.6217957492917775
leaf_count=47 15 32 115 19 31 98 28 36 3 19 717 7 15 84 101 39 51 37 27 1050 10 4445 26 14 816 20 30 26 18 24
internal_value=0 -0.0257608 -0.0329254 -0.039142 -0.0442625 0.0459617 0.0251012 -0.00589008 -0.0416819 0.0639713 -0.044291 -0.00928263 -0.0470197 -0.0237927 -0.0477393 -0.0412156 -0.00905275 -0.0453438 0.0642909 -0.0478639 -0.0277621 -0.0494635 -0.0441871 0.00661415 -0.0472751 -0.032281 0.0472685 0.0786677 -0.0508485 -0.0509409
internal_weight=0 120.294 112.747 105.949 101.547 56.5351 34.0745 21.5859 14.2953 6.79738 13.957 1.0092 12.9478 1.83232 98.3172 20.553 2.33796 18.2151 7.29052 17.1525 2.14798 77.7642 15.042 0.861941 14.1801 2.65538 2.85453 12.4886 11.1155 2.08347
internal_count=8000 6894 6862 6798 6779 1106 1008 954 891 64 888 54 834 99 6748 1302 90 1212 63 1175 125 5446 1001 40 961 145 45 54 735 125
is_linear=0
shrinkage=0.05


Tree=19
num_leaves=31
num_cat=0
split_feature=3 8 6 9 1 9 8 5 2 9 4 4 4 5 3 3 5 3 4 5 5 2 1 1 5 3 4 3 5 2
split_gain=73.8838 42.5844 40.8613 21.8354 9.6208 16.5967 18.6643 1.4486 1.17642 1.67666 1.60712 0.953692 0.650627 0.971162 0.445059 1.10045 1.85194 0.857918 1.0948 0.483084 2.33239 0.25936 1.01376 1.27616 1.61177 0.760424 0.200792 0.966797 2.04496 0.0571883
threshold=-0.88286701389853162 1.0000000180025095e-35 1.0000000180025095e-35 1.0000000180025095e-35 0.77247371677055476 1.0000000180025095e-35 1.0000000180025095e-35 1.7839321375881503 1.512772436885242 1.0000000180025095e-35 2.383833507061436 2.2433902015028573 0.44772222328959882 1.4854291951212431 -0.54818590390206412 -0.60396608890147541 1.4697185139387743 -0.57049797790182855 0.51794387606888859 -1.3739147800880789 -1.4053361424530164 0.50175915280196703 1.2724340530469374 1.1224459521640169 1.2183476150192736 -1.0167394578971185 -1.1071858025375239 0.95787909108203961 0.85700194782249084 1.1083671232519359
decision_type=2 2 2 2 2 2 2 2 2 2 2 2 2 2 2 2 2 2 2 2 2 2 2 2 2 2 2 2 2 2
left_child=4 2 3 14 5 6 7 11 21 10 -10 12 13 -1 15 19 17 -17 -19 20 -2 -6 23 24 -23 -25 27 28 -16 -24
right_child=1 -3 -4 -5 8 -7 -8 -9 9 -11 -12 -13 -14 -15 26 16 -18 18 -20 -21 -22 22 29 25 -26 -27 -28 -29 -30 -31
leaf_value=-0.050705733004269143 -0.050816826427872136 0.076971052030969336 0.078839232106938717 0.077152581296456996 0.073098780412389805 0.076630101484151877 0.077100818896450415 0.061422864552786428 -0.050870067076885073 0.076111173942920871 0.063465316388370635 0.0030773687385070043 -0.050800924164789985 0.051735817886790637 -0.050808653324573821 -0.050753482138528441 0.090158469495466464 -0.051060031968686838 0.021010814074439055 -0.050777350826231686 0.094593341761989858 -0.050844680877964482 0.075231668868903576 0.038795018526918912 0.068456914878777184 0.087604673803470409 -0.05069344836300993 -0.050729342840061246 0.032072439625505739 0.067271900519103117
leaf_weight=0.54757537040859361 1.4487144984304903 9.3145457655191404 7.3946854919195166 3.6409458220005027 12.354643694125121 9.2789602130651492 4.7783112376928321 0.34492766857147295 0.8046488380059591 1.1265076696872711 0.49729272723197937 1.044503495097161 9.7877806918695551 0.40062089916318655 1.9837908139452332 2.2340211132541299 0.35262152366340149 0.8594371667131776 1.3619953747838733 13.564597344957292 0.34060972556471902 0.68431387655436882 6.0581620233133417 1.8891576780006292 0.48287588637322187 1.3815029310062525 59.7557437652722 12.048243727535008 1.1910914145410059 3.5960071561858058
leaf_count=40 97 41 32 16 70 41 21 3 51 5 4 27 685 7 132 159 15 46 39 954 9 44 28 31 4 15 4447 869 38 30
internal_value=0 -0.0255362 -0.0345288 -0.0430154 0.0448497 0.0229004 -0.00659349 -0.0395753 0.0647524 0.0314473 -0.00719825 -0.0425325 -0.0469698 -0.00742332 -0.0476141 -0.0410194 -0.020145 -0.0288749 -0.00687226 -0.0475562 -0.023137 0.0678106 0.0631744 0.0433945 -0.00148864 0.0594119 -0.0493875 -0.0442611 -0.0197149 0.0722668
internal_weight=0 115.491 106.176 98.7818 55.0578 26.1827 16.9037 12.1254 28.8751 2.42845 1.30194 11.7805 10.736 0.948196 95.1409 20.162 4.80808 4.45545 2.22143 15.3539 1.78932 26.4467 14.092 4.43785 1.16719 3.27066 74.9789 15.2231 3.17488 9.65417
internal_count=8000 6894 6853 6821 1106 824 783 762 282 60 55 759 732 47 6805 1319 259 244 85 1060 106 222 152 94 48 46 5486 1039 170 58
is_linear=0
shrinkage=0.05


Tree=20
num_leaves=31
num_cat=0
split_feature=3 8 6 9 1 9 8 5 2 4 4 4 3 3 1 5 5 5 5 1 2 4 3 5 2 1 2 4 1 2
split_gain=69.0224 39.8713 38.3444 20.5545 8.73243 15.3485 17.401 1.3947 1.08705 1.73959 1.08092 1.08069 0.459824 1.10395 1.86466 0.869891 2.07225 0.48959 2.07049 0.286522 0.605684 0.208902 0.976025 1.9194 0.141566 1.11334 0.971088 0.106045 0.0136023 0.00077096
threshold=-0.88286701389853162 1.0000000180025095e-35 1.0000000180025095e-35 1.0000000180025095e-35 0.77247371677055476 1.0000000180025095e-35 1.0000000180025095e-35 1.5482719198511183 1.3105697800685794 1.6615536499030303 1.4508886915651622 2.2433902015028573 -0.54818590390206412 -0.60396608890147541 -1.3773557292178944 -0.43127390913995095 -1.0754118376211717 -1.3739147800880789 -1.4053361424530164 0.9724578512810963 0.29955649598530437 -1.1071858025375239 0.95787909108203961 0.85700194782249084 0.70396180961862964 1.3224300866745724 1.1757680088574836 0.79883048718604599 1.1224459521640169 0.097353839168660847
decision_type=2 2 2 2 2 2 2 2 2 2 2 2 2 2 2 2 2 2 2 2 2 2 2 2 2 2 2 2 2 2
left_child=4 2 3 12 5 6 7 11 19 10 -10 -1 13 17 -15 16 -16 18 -2 20 -6 22 23 -14 28 26 -26 -18 -21 -3
right_child=1 29 -4 -5 8 -7 -8 -9 9 -11 -12 -13 21 14 15 -17 27 -19 -20 24 -22 -23 -24 -25 25 -27 -28 -29 -30 -31
leaf_value=-0.050682476343334761 -0.05077646576291879 0.075423950639762385 0.076662796567739847 0.075141540403851403 0.071027250011374846 0.074670003769872886 0.075093658868523039 0.010095089369725712 -0.050849446527304054 0.062776727254494721 0.04059144913286105 0.0029197645616992202 -0.050768657056402128 0.091719291585128954 -0.051488742777470259 -0.050887191843464921 0.032245034757362692 -0.050739001456141887 0.082242469151547759 0.070028909292281269 0.028477291381194342 -0.050659175093534937 -0.050693300580101103 0.029553310807018604 -0.00066851065580675242 0.073758880268053315 0.070353201602634002 0.064935398935033098 0.07345701954775638 0.074502582924342337
leaf_weight=9.322332235984506 1.3791275946423409 4.6811253279447538 7.2285854220390311 3.5536783486604682 2.0087099699303574 9.0521479249000567 4.6636297702789298 1.2773656137287606 0.70481754373758965 2.4168578032404184 0.59687871858477592 1.0458052679896344 1.8884892947971814 0.34859376866370428 1.1763229519128802 2.1716458648443213 0.59445825219154336 12.912550584413111 0.37130207568407136 4.501024994999173 1.4329934511333702 56.878907688893378 11.468586878851054 1.2270188853144643 1.0885911863297204 6.550670713186264 0.86274829506874073 0.42575293499976397 8.1026565507054311 4.4087094962596893
leaf_count=712 97 21 32 16 12 41 21 23 46 23 12 27 132 16 58 143 26 954 9 29 37 4447 869 38 36 30 19 16 38 20
internal_value=0 -0.0253503 -0.0343241 -0.0428232 0.0437601 0.0224595 -0.00651912 -0.0392023 0.0628718 0.0376789 -0.00892021 -0.0452758 -0.0474378 -0.0406068 -0.0195661 -0.028447 -0.00626106 -0.0473751 -0.0225604 0.0666881 0.0533111 -0.0492903 -0.0439516 -0.0191345 0.0688695 0.0638837 0.0307324 0.0458873 0.0722328 0.0749771
internal_weight=0 110.715 101.625 94.3964 53.6272 25.3613 16.3091 11.6455 28.2659 3.71855 1.3017 10.3681 90.8428 19.3798 4.71677 4.36818 2.19653 14.663 1.75043 24.5474 3.4417 71.463 14.5841 3.11551 21.1057 8.50201 1.95134 1.02021 12.6037 9.08983
internal_count=8000 6894 6853 6821 1106 824 783 762 282 81 58 739 6805 1319 259 243 100 1060 106 201 49 5486 1039 170 152 85 55 42 67 41
is_linear=0
shrinkage=0.05


Tree=21
num_leaves=31
num_cat=0
split_feature=3 6 4 9 4 7 9 4 5 3 3 5 3 2 1 5 5 2 1 3 4 4 3 5 1 1 5 4 1 5
split_gain=64.4941 30.1386 22.5172 21.2776 12.5575 12.0745 18.3873 17.4542 1.40036 0.48754 1.10066 1.8646 0.850829 1.10876 2.99427 0.514809 1.83774 0.476294 1.15606 0.463776 0.414401 0.233142 0.9677 1.805 0.153664 0.000915173 0.000190184 0.000167782 6.74701e-05 1.71373e-05
threshold=-0.88286701389853162 1.0000000180025095e-35 -2.4213338759785112 1.0000000180025095e-35 1.8320919495098762 1.0000000180025095e-35 1.0000000180025095e-35 2.2433902015028573 1.5482719198511183 -0.54818590390206412 -0.60396608890147541 1.4854291951212431 -0.57049797790182855 -0.10484881764800176 0.32250941412180795 -1.3739147800880789 -1.4053361424530164 1.1757680088574836 1.1724419857916522 6.0589770092781992 2.6446567888130827 -1.1071858025375239 0.95787909108203961 0.85700194782249084 -0.72740729205859178 0.32250941412180795 1.5954039633985246 1.4508886915651622 1.1224459521640169 1.4854291951212431
decision_type=2 2 2 2 2 2 2 2 2 2 2 2 2 2 2 2 2 2 2 2 2 2 2 2 2 2 2 2 2 2
left_child=5 2 19 4 9 6 7 8 17 10 15 12 -12 -14 -15 16 -4 28 -19 24 -9 22 23 -11 -2 -8 -17 -7 -1 -23
right_child=1 -3 3 -5 -6 27 25 20 -10 21 11 -13 13 14 -16 26 -18 18 -20 -21 -22 29 -24 -25 -26 -27 -28 -29 -30 -31
leaf_value=-0.050653816281467201 0.055440119115225173 0.074703906290094976 -0.050722756176240794 0.0729971232606174 0.056312976749075289 0.072074698320457348 0.072640941423558064 0.041196003873962973 0.0080310061852722301 -0.050730666897607163 -0.050695851483461833 0.092965045911211672 -0.051491178085883452 0.097543910169998943 -0.051582118419412452 -0.050637733539260391 0.072383653402431275 0.03591069047243152 -0.050850298392634524 0.070430472710377764 0.066755912162569347 -0.050618437573284415 -0.050632731963189098 0.02729920278014385 0.031556795355147924 0.073558016854422245 -0.051438758088968931 0.072368691155427198 -0.051295856707760802 -0.050729339987176505
leaf_weight=9.3435540637001395 1.3026040941476824 7.0517041236162177 1.2523507801815865 4.0889496654272071 3.0334333926439276 13.172928258776667 7.2874965965747851 2.4576419256627551 1.3172715269029129 1.7976979175582521 2.0857180561870337 0.34506639372557391 0.82913594041019711 0.66450552269816288 0.68215588107705116 11.210014082491396 0.39997508004307825 0.57248650398105283 1.1658146176487205 3.651725210249424 4.4700459334999323 50.349994353950024 10.181064318865536 1.2610017880797384 1.3944299481809128 4.3408150523900986 0.79345440864563066 7.6838080883026114 0.42793211713433343 3.7422727569937697
leaf_count=745 15 32 94 19 31 62 34 36 24 132 160 13 38 17 30 909 9 29 75 19 27 4174 831 38 30 20 32 36 18 271
internal_value=0 -0.0251703 -0.0322795 -0.0385173 -0.0436622 0.0426962 0.0230996 -0.00626358 -0.040803 -0.0472052 -0.0399595 -0.0188252 -0.0278772 -0.00600321 0.0220036 -0.0470888 -0.0209226 -0.0463919 -0.0222767 0.0588167 0.0576884 -0.0491705 -0.0432235 -0.0185615 0.0430919 0.0729833 -0.0506907 0.072183 -0.0506819 -0.0506261
internal_weight=0 106.117 99.0655 92.7168 88.6278 52.2398 31.3831 19.7547 12.8271 85.5944 18.2624 4.60658 4.26152 2.1758 1.34666 13.6558 1.65233 11.5098 1.7383 6.34876 6.92769 67.332 13.2398 3.0587 2.69703 11.6283 12.0035 20.8567 9.77149 54.0923
internal_count=8000 6894 6862 6798 6779 1106 1008 954 891 6748 1302 258 245 85 47 1044 103 867 104 64 63 5446 1001 170 45 54 941 98 763 4445
is_linear=0
shrinkage=0.05


Tree=22
num_leaves=31
num_cat=0
split_feature=3 6 4 9 4 7 9 4 5 4 4 5 2 2 3 4 4 4 4 3 5 1 0 4 4 1 5 4 4 4
split_gain=60.3566 28.2245 21.1176 20.0246 11.8368 11.2282 17.095 16.2008 1.3657 0.502159 2.34191 1.19676 0.483428 2.2312 0.473366 0.4615 1.81407 0.418619 0.198078 0.975214 1.70025 0.145498 0.141202 0.909268 2.24323 0.000740383 0.00015017 0.000157937 0.000191622 0.000135644
threshold=-0.88286701389853162 1.0000000180025095e-35 -2.4213338759785112 1.0000000180025095e-35 1.8320919495098762 1.0000000180025095e-35 1.0000000180025095e-35 2.2433902015028573 1.5482719198511183 0.76873549313777934 0.77876715782053474 1.5954039633985246 1.1757680088574836 1.2431688944630315 6.0589770092781992 0.85902047528257997 0.83895714591706827 2.6446567888130827 -1.1071858025375239 0.95787909108203961 0.85700194782249084 -0.72740729205859178 -1.1652788875324411 0.51794387606888859 0.60822885821368911 0.32250941412180795 -1.0282797940737651 1.0997804276687149 1.1700020804480047 1.4508886915651622
decision_type=2 2 2 2 2 2 2 2 2 2 2 2 2 2 2 2 2 2 2 2 2 2 2 2 2 2 2 2 2 2
left_child=5 2 14 4 9 6 7 8 12 18 -11 15 -1 -14 21 16 -12 -9 19 20 -4 -2 23 -20 -25 -8 27 -17 -29 -7
right_child=1 -3 3 -5 -6 29 25 17 -10 10 11 -13 13 -15 -16 26 -18 -19 22 -21 -22 -23 -24 24 -26 -27 -28 28 -30 -31
leaf_value=-0.050648254238254732 0.053109124436367283 0.072933445247456694 -0.050694577473025394 0.07138233027402785 0.054062351398122613 0.07053968107226101 0.071055954120561982 0.039099538505367494 0.0075919465288253052 0.089367660625803258 -0.050650752073626792 0.024083761506598703 0.09078542354174271 -0.050808564355924235 0.068802291324251308 -0.050669417894534954 0.068917833656929897 0.064884119665294435 -0.05062144021402986 -0.050601498029376836 0.0252724955625401 0.029844574013143117 -0.050624661089134472 0.11607816497098927 -0.051030359739761756 0.071892439830704244 -0.050661612812611202 -0.052571263556825169 -0.051120135145186409 0.070807862497543603
leaf_weight=9.3009499209001678 1.2920604329556229 6.8664335906505576 1.7112098205834549 3.9752578288316718 3.0025294385850421 12.796156510710718 7.0827398896217364 2.4598874375224105 1.3236123379319895 0.3548245020210733 1.3480614097788892 0.65644505247473794 0.35032411850988765 1.3517625825479624 3.5537244714796543 0.86418922245502194 0.41483657527714957 4.3715639412403107 5.2685624798759738 9.6903546489775163 1.2931554466485975 1.4005475807934988 52.122578174807146 0.29780774749815453 0.61667546723037958 4.2223152369260788 6.0627451101318028 0.33387257438153006 0.71401873137801886 7.4660441279411307
leaf_count=763 15 32 132 19 31 62 34 36 24 23 110 19 13 91 19 72 29 27 448 831 38 30 4423 18 45 20 501 13 46 36
internal_value=0 -0.0249614 -0.032039 -0.0382947 -0.0434391 0.0417944 0.0226091 -0.00616342 -0.0403926 -0.0470201 -0.0369486 -0.0412607 -0.0461649 -0.0216656 0.0568211 -0.0456657 -0.0225145 0.0555995 -0.0485449 -0.0428851 -0.0179964 0.0410082 -0.0497772 -0.0426331 0.00338968 0.0713684 -0.0507835 -0.0511698 -0.0515825 0.0706385
internal_weight=0 101.84 94.9735 88.7271 84.7519 50.7254 30.4632 19.1581 12.3266 81.7493 10.749 10.3942 11.003 1.70209 6.24633 9.73772 1.7629 6.83145 71.0003 12.6947 3.00437 2.69261 58.3056 6.18305 0.914483 11.3051 7.97483 1.91208 1.04789 20.2622
internal_count=8000 6894 6862 6798 6779 1106 1008 954 891 6748 813 790 867 104 64 771 139 63 5935 1001 170 45 4934 511 63 54 632 131 59 98
is_linear=0
shrinkage=0.05


Tree=23
num_leaves=31
num_cat=0
split_feature=3 8 6 9 1 9 8 5 2 4 2 4 3 3 1 5 5 5 5 1 2 4 3 3 4 4 3 1 2 2
split_gain=56.5123 33.631 31.8734 17.2232 6.87615 12.3463 14.6267 1.30749 0.901933 1.25418 1.00117 0.866895 0.504717 1.1448 1.67875 0.895059 1.91337 0.517841 1.71825 0.288389 0.530756 0.231158 1.00385 1.67729 1.48635 0.199914 0.127328 0.189049 0.462588 0.658007
threshold=-0.88286701389853162 1.0000000180025095e-35 1.0000000180025095e-35 1.0000000180025095e-35 0.77247371677055476 1.0000000180025095e-35 1.0000000180025095e-35 1.5482719198511183 1.2431688944630315 1.4508886915651622 1.3105697800685794 2.2433902015028573 -0.54818590390206412 -0.60396608890147541 -1.3773557292178944 -0.43127390913995095 -1.0754118376211717 -1.3739147800880789 -1.4053361424530164 0.9724578512810963 0.29955649598530437 -1.1071858025375239 0.95787909108203961 0.94114503558221629 -1.1272491319030349 2.383833507061436 -0.98327134689747175 1.2224380194192876 0.43435826719641918 0.63656092401306263
decision_type=2 2 2 2 2 2 2 2 2 2 2 2 2 2 2 2 2 2 2 2 2 2 2 2 2 2 2 2 2 2
left_child=4 2 3 12 5 6 7 11 19 10 -10 -1 13 17 -15 16 -16 18 -2 20 -6 22 23 24 -14 -11 27 28 -21 -30
right_child=1 -3 -4 -5 8 -7 -8 -9 9 25 -12 -13 21 14 15 -17 -18 -19 -20 26 -22 -23 -24 -25 -26 -27 -28 -29 29 -31
leaf_value=-0.050592692315260951 -0.05068545760393104 0.070631263120747356 0.07132726825652462 0.070197361249964382 0.0664062891427004 0.06983368168154705 0.070838934400654988 0.0086669595493158186 0.044243629121587996 0.040858150604263135 -0.050749923104193309 -0.0028915750551630551 -0.051018948921653443 0.08562908206931924 -0.051378598186600892 -0.05084553372681018 0.044674446484716218 -0.050654269077385343 0.067043796850884838 0.068621536717799955 0.025321979771879763 -0.050567446387971185 -0.050614541759229414 0.081532821836520539 0.043152347308051238 0.065526664262790232 0.072049849135687655 0.067792683241180512 0.062456958389042951 0.012278639745249897
leaf_weight=8.0835940474644286 1.206896021030843 8.4430726617574674 6.6748576611280432 3.2699000388383856 1.845761152915663 8.3178008198738098 4.3427055776119241 1.2968823015689839 0.50640078261494526 1.6045512929558756 0.61327726393938065 1.0796817578375328 2.0520226880908021 0.36340755596756924 1.0443755378946664 1.955514458939432 1.0295804357156155 11.267783911898732 0.41701193153858263 3.2198949363082701 1.3692906545475123 49.099490876309574 10.016430104151366 0.3738682884722947 0.52652287762612004 1.6824590042233465 4.8929901076480702 7.7061509415507317 1.4879022547975185 1.1648065298795698
leaf_count=712 97 41 32 16 12 41 21 23 7 31 46 27 134 16 58 143 42 954 9 17 37 4447 869 12 24 10 37 43 13 29
internal_value=0 -0.0247519 -0.0337703 -0.0422609 0.0409459 0.0210912 -0.00629744 -0.0383219 0.0585386 0.0379165 -0.00778685 -0.0449722 -0.046895 -0.0393385 -0.0172947 -0.0265771 -0.00369469 -0.04685 -0.0204531 0.0627289 0.0489085 -0.0489992 -0.0430621 -0.0174396 -0.0317898 0.0534848 0.0651344 0.0626425 0.0558843 0.0404236
internal_weight=0 97.7407 89.2977 82.6228 49.2141 23.1207 14.8029 10.4602 26.0935 4.40669 1.11968 9.16328 79.3529 17.2846 4.39288 4.02947 2.07396 12.8917 1.62391 21.6868 3.21505 62.0683 12.9688 2.95241 2.57855 3.28701 18.4717 13.5788 5.8726 2.65271
internal_count=8000 6894 6853 6821 1106 824 783 762 282 94 53 739 6805 1319 259 243 100 1060 106 188 49 5486 1039 170 158 41 139 102 59 42
is_linear=0
shrinkage=0.05


Tree=24
num_leaves=31
num_cat=0
split_feature=3 8 6 9 7 9 8 5 3 3 5 3 4 5 1 1 1 4 3 5 1 5 4 4 5 4 4 1 3 4
split_gain=52.9034 31.5949 30.0042 16.248 9.92325 15.1401 18.7548 1.34139 0.520055 1.14282 1.97589 0.857787 1.00781 0.523167 1.56958 0.43796 1.48282 0.240214 1.00974 1.60571 0.00128694 0.00023856 0.000227951 0.000224557 0.000145986 7.31663e-05 6.13707e-05 4.09784e-05 2.53939e-05 1.77824e-05
threshold=-0.88286701389853162 1.0000000180025095e-35 1.0000000180025095e-35 1.0000000180025095e-35 1.0000000180025095e-35 1.0000000180025095e-35 1.0000000180025095e-35 1.5482719198511183 -0.54818590390206412 -0.60396608890147541 1.5325612386686494 -0.57049797790182855 0.51794387606888859 -1.3739147800880789 0.92246181765346102 1.1224459521640169 1.1724419857916522 -1.1071858025375239 0.95787909108203961 0.85700194782249084 0.32250941412180795 -1.4210468236354854 2.2433902015028573 1.4508886915651622 1.5954039633985246 -2.4213338759785112 1.8320919495098762 0.17252131323888756 -1.0000054023972951 1.4107620328341397
decision_type=2 2 2 2 2 2 2 2 2 2 2 2 2 2 2 2 2 2 2 2 2 2 2 2 2 2 2 2 2 2
left_child=4 2 3 8 5 6 7 15 9 13 11 -11 -13 14 21 22 -17 18 19 -10 -7 -2 -1 28 26 -20 -15 -3 -6 -18
right_child=1 27 -4 -5 23 20 -8 -9 17 10 -12 12 -14 24 -16 16 29 -19 25 -21 -22 -23 -24 -25 -26 -27 -28 -29 -30 -31
leaf_value=-0.050579276666061525 -0.050604550357635662 0.069337889341539435 0.069865171623485753 0.068831342999642053 0.067944347332459062 0.068291093726884411 0.069445461044696344 0.0067900088702538622 -0.050658195328692028 -0.050638296804026185 0.10208390714681637 -0.050908677993859501 0.021561388825247298 -0.050550910893629265 0.059335394755082885 0.051129766485297636 -0.050702096511993061 -0.050539470300931824 -0.051056281823506848 0.024041214215309199 0.069424361257745884 -0.052278520375875319 -0.051457791054211922 0.068240282211059669 -0.051313213670850066 -0.050543609772884128 -0.051271476212425296 0.069114114310638519 0.067796204807685959 -0.051068058747570033
leaf_weight=8.4884737329557538 0.85980887804180373 4.2096293270587903 6.478788584470748 3.170572727918624 7.1907088309526452 6.660414859652521 5.6208734810352317 1.3347454927861679 1.5924263857305043 1.9069470157846811 0.32351594697684039 0.74545296654105131 1.3458729451522229 9.7068589096888864 0.44875624496489752 0.48427902348339458 0.59661057963967301 46.73008203972131 0.75586957670748134 1.3122255224734543 4.0154800564050674 0.28285041637718755 0.80873730033636171 7.0405068993568412 0.71325542218983251 8.7776138270273787 0.30477583222091276 3.9801622629165649 4.8396919518709192 0.74823816120624542
leaf_count=769 76 21 32 16 37 34 28 24 132 162 10 48 39 909 23 16 47 4447 38 38 20 7 30 36 32 831 13 20 25 40
internal_value=0 -0.0245851 -0.033576 -0.0420617 0.0400491 0.0215027 -0.0063737 -0.0405738 -0.0466998 -0.03889 -0.0167685 -0.0263853 -0.00427056 -0.0466525 -0.0199006 -0.0462557 -0.0238908 -0.0488958 -0.0427207 -0.0169115 0.0687173 -0.0510189 -0.0506557 0.068016 -0.0506221 -0.0505843 -0.0505728 0.0692291 0.0678848 -0.0509057
internal_weight=0 93.6455 85.4557 78.9769 47.8288 28.7579 18.082 12.4611 75.8063 16.6381 4.32179 3.99827 2.09133 12.3163 1.59142 11.1263 1.82913 59.1682 12.4381 2.90465 10.6759 1.14266 9.29721 19.0709 10.7249 9.53348 10.0116 8.18979 12.0304 1.34485
internal_count=8000 6894 6853 6821 1106 1008 954 926 6805 1319 259 249 87 1060 106 902 103 5486 1039 170 54 83 799 98 954 869 922 41 62 87
is_linear=0
shrinkage=0.05


Tree=25
num_leaves=31
num_cat=0
split_feature=3 8 6 9 7 9 8 6 3 3 5 0 5 5 2 1 2 2 3 3 3 3 1 5 3 1 5 5 3 5
split_gain=49.7044 28.6558 27.757 12.5545 10.0284 15.3851 18.8926 5.293 0.60683 1.06856 1.68973 0.851731 0.572807 1.74014 0.504465 2.13828 0.426046 1.81714 0.228231 1.68644 0.311836 1.46221 0.00102337 0.000672868 0.000290344 0.000166588 0.000158251 0.000126452 0.000107564 9.20197e-05
threshold=-0.84939890289888476 1.0000000180025095e-35 1.0000000180025095e-35 1.0000000180025095e-35 1.0000000180025095e-35 1.0000000180025095e-35 1.0000000180025095e-35 1.0000000180025095e-35 -0.54818590390206412 -0.60396608890147541 1.5325612386686494 -1.1652788875324411 -1.3739147800880789 -1.4053361424530164 0.43435826719641918 0.37250544774944333 1.1757680088574836 1.2431688944630315 0.8072725915836293 0.82400664708345261 0.95787909108203961 0.94114503558221629 0.32250941412180795 1.5796932822160559 -0.57049797790182855 1.0724499185363816 -0.74548753278932689 1.5954039633985246 -0.57049797790182855 0.96697671609977254
decision_type=2 2 2 2 2 2 2 2 2 2 2 2 2 2 2 2 2 2 2 2 2 2 2 2 2 2 2 2 2 2
left_child=4 2 3 8 5 6 7 16 9 12 11 -11 13 -2 24 -16 23 -18 -10 -20 21 29 -7 -1 -13 -6 -26 -14 -17 -21
right_child=1 -3 -4 -5 25 22 -8 -9 18 10 -12 14 27 -15 15 28 17 -19 19 20 -22 -23 -24 -25 26 -27 -28 -29 -30 -31
leaf_value=-0.050646750739822333 -0.050635728357615983 0.067907170697165134 0.068547246788663072 0.067639102061624101 0.067080849262569173 0.067094292135082528 0.068183488750755777 0.095129828205380296 -0.050530578993226986 0.027498952997296412 0.088217323917207574 -0.050600191154832053 -0.050538885684957124 0.072169674334718145 0.097184256655508783 -0.050610033422036793 0.066686779867875898 -0.050830934849172761 0.04559395412659091 -0.050529213139367472 -0.050550775973356638 0.043398610006523293 0.068094974274483425 -0.052143383948443346 -0.052439206580757326 0.06674123542079323 -0.051231525816396964 -0.051265332875933781 -0.051712134009334713 -0.051256564852828139
leaf_weight=9.9686938589438761 1.0428656246513126 7.5372915565967551 6.0851887464523307 2.4968831390142432 4.9255587905645397 6.8280887603759783 5.8424364477396002 0.69181631505489427 43.409565481357276 0.62936162017285813 0.35475848428904999 0.95259588956832963 8.4502560719847644 0.39876111596822639 0.33425371069461085 0.47962446603924036 0.42040214221924621 1.5120329912751911 0.51608883868902822 1.2679270710796111 10.025089175440369 0.5240855449810623 4.0825291872024536 0.81218493450433094 0.50866210833191872 13.528446808457373 0.58119787555187874 0.64474861975759346 0.41120537184178829 0.66181599162518967
leaf_count=889 91 39 31 13 26 36 30 3 4301 35 10 85 821 8 18 43 15 108 34 124 965 23 21 22 16 72 33 30 19 39
internal_value=0 -0.0252817 -0.0340864 -0.0425617 0.0378003 0.0200357 -0.00685202 -0.0395552 -0.0464267 -0.0374113 -0.016253 -0.0257636 -0.045949 -0.0166671 -0.0360225 -0.0106555 -0.0468843 -0.0252649 -0.0487904 -0.0429773 -0.0466404 -0.0306644 0.0674687 -0.0507595 -0.0512378 0.0668319 -0.0517952 -0.0505904 -0.0511188 -0.0507787
internal_weight=0 87.3122 79.7749 73.6897 48.6122 30.1582 19.2476 13.4051 71.1929 14.7883 4.25166 3.8969 10.5366 1.44163 3.26754 1.22508 12.7133 1.93244 56.4046 12.995 12.4789 2.45383 10.9106 10.7809 2.04246 18.454 1.08986 9.095 0.89083 1.92974
internal_count=8000 6778 6739 6708 1222 1124 1067 1037 6695 1209 259 249 950 99 214 80 1034 123 5486 1185 1151 186 57 911 134 98 49 851 62 163
is_linear=0
shrinkage=0.05


Tree=26
num_leaves=31
num_cat=0
split_feature=3 8 6 9 7 9 8 6 3 3 5 3 2 1 5 5 2 2 4 3 5 1 5 4 4 5 4 1 4 3
split_gain=46.7587 26.9601 26.1574 11.8506 9.3411 14.3717 17.7406 4.93957 0.623322 1.06283 1.7039 0.861662 1.09419 2.41594 0.575807 1.5697 0.432834 1.65934 0.260643 1.03692 1.53344 0.000839167 0.000577279 0.000156414 0.000154405 0.000108659 5.41084e-05 5.37569e-05 2.5084e-05 1.76412e-05
threshold=-0.84939890289888476 1.0000000180025095e-35 1.0000000180025095e-35 1.0000000180025095e-35 1.0000000180025095e-35 1.0000000180025095e-35 1.0000000180025095e-35 1.0000000180025095e-35 -0.54818590390206412 -0.60396608890147541 1.5639826010335869 -0.57049797790182855 -0.10484881764800176 0.32250941412180795 -1.3739147800880789 -1.4053361424530164 1.1757680088574836 1.2431688944630315 -1.1071858025375239 0.95787909108203961 0.85700194782249084 0.32250941412180795 1.5796932822160559 1.4508886915651622 2.2433902015028573 1.5954039633985246 -2.4213338759785112 1.1224459521640169 1.7919652907788535 -1.0000054023972951
decision_type=2 2 2 2 2 2 2 2 2 2 2 2 2 2 2 2 2 2 2 2 2 2 2 2 2 2 2 2 2 2
left_child=4 2 3 8 5 6 7 16 9 14 11 -11 -13 -14 15 -2 22 -18 19 20 -10 -7 24 29 27 28 -21 -1 -16 -6
right_child=1 -3 -4 -5 23 21 -8 -9 18 10 -12 12 13 -15 25 -17 17 -19 -20 26 -22 -23 -24 -25 -26 -27 -28 -29 -30 -31
leaf_value=-0.050529215895466641 -0.050604434456801239 0.066735488356312697 0.067323494719432289 0.066488529284669473 0.065682252958791709 0.06598580331206691 0.066988655816677331 0.091392559927958847 -0.05061435649720597 -0.050596308061781697 0.089971170111952548 -0.051347637681388086 0.086057454743226167 -0.051400019926896134 -0.050496473619870856 0.06424932469364715 0.059511901363737685 -0.050790003442409651 -0.050488141563755522 -0.050954305890313648 0.023738917513643903 0.066907126302057349 -0.052034966755626771 0.065937677022915059 -0.051323788663518236 -0.051202404444877607 -0.050491354025738282 -0.051097268542922493 -0.051003403918390505 0.065554555889728222
leaf_weight=8.3391672568395663 0.99260245356708765 7.2923536896705619 5.890935778617858 2.4151587188243857 6.72452536225319 6.6014004498720187 5.6540875136852256 0.68428634107112962 1.4652690179646009 1.7991496222093704 0.34930643811821926 0.74603928998112712 0.71599271334707626 0.57748189195990562 7.7903287876397336 0.42479797825217136 0.44679963774979192 1.4394201403483746 42.358453017659485 0.68557780981063743 1.3164326976984737 3.9506035894155502 0.77414325624704439 6.588149055838584 0.71077250875532705 0.61403859406709749 7.9500589016824952 0.4383765887469061 0.25191922020167101 4.5243123471736917
leaf_count=837 91 39 31 13 37 36 30 3 132 164 8 40 17 30 807 8 15 108 4447 38 38 21 22 36 29 30 831 23 14 25
internal_value=0 -0.0251161 -0.0338897 -0.0423527 0.0372652 0.0197723 -0.00680224 -0.0393138 -0.0462163 -0.0369232 -0.0157538 -0.0253744 -0.00312497 0.0246885 -0.0457241 -0.0161825 -0.046676 -0.0246622 -0.0486809 -0.0419761 -0.0154269 0.0663307 -0.0507221 0.0657442 -0.050615 -0.0505613 -0.0505281 -0.0505576 -0.0505124 0.0656309
internal_weight=0 83.6359 76.3435 70.4526 46.876 29.0391 18.4871 12.833 68.0374 14.2617 4.18797 3.83866 2.03951 1.29347 10.0737 1.4174 12.1487 1.88622 53.7758 11.4173 2.7817 10.552 10.2625 17.837 9.48832 8.65629 8.63564 8.77754 8.04225 11.2488
internal_count=8000 6778 6739 6708 1222 1124 1067 1037 6695 1209 259 251 87 47 950 99 1034 123 5486 1039 170 57 911 98 889 851 869 860 821 62
is_linear=0
shrinkage=0.05


Tree=27
num_leaves=31
num_cat=0
split_feature=3 8 6 9 7 9 8 6 3 3 5 3 2 5 3 2 2 4 3 5 5 1 5 5 4 4 5 4 4 1
split_gain=44.0116 25.3796 24.6611 11.1897 8.71476 13.4416 16.6704 4.61735 0.637995 1.053 1.70917 0.817147 1.04608 0.578501 1.51375 0.439422 1.52481 0.27049 1.04078 1.44525 0.239365 0.000690438 0.000495425 0.000339288 0.000132572 0.000129221 9.33818e-05 7.00512e-05 4.64844e-05 4.6184e-05
threshold=-0.84939890289888476 1.0000000180025095e-35 1.0000000180025095e-35 1.0000000180025095e-35 1.0000000180025095e-35 1.0000000180025095e-35 1.0000000180025095e-35 1.0000000180025095e-35 -0.54818590390206412 -0.60396608890147541 1.5954039633985246 -0.57049797790182855 -0.10484881764800176 -1.3739147800880789 -0.67090231090076891 1.1757680088574836 1.2431688944630315 -1.1071858025375239 0.95787909108203961 0.85700194782249084 -1.0597011564387027 0.32250941412180795 1.5796932822160559 -1.4210468236354854 2.2433902015028573 1.4508886915651622 1.5954039633985246 0.60822885821368911 -2.4213338759785112 1.1224459521640169
decision_type=2 2 2 2 2 2 2 2 2 2 2 2 2 2 2 2 2 2 2 2 2 2 2 2 2 2 2 2 2 2
left_child=4 2 3 8 5 6 7 15 9 13 11 -11 27 14 23 22 -17 18 19 -10 -14 -7 24 -2 29 -6 -15 -13 -20 -1
right_child=1 -3 -4 -5 25 21 -8 -9 17 10 -12 12 20 26 -16 16 -18 -19 28 -21 -22 -23 -24 -25 -26 -27 -28 -29 -30 -31
leaf_value=-0.050503189141262367 -0.050547249484556682 0.065658634475689509 0.066200083108922989 0.06543061922771963 0.064637987023765262 0.064965742553990014 0.065891151196038222 0.088078872322507176 -0.050584112485771583 -0.050566948233601187 0.091184911603066493 -0.050802703260837356 0.051010018628447819 -0.050487122015195951 0.060821899616174208 0.053484153156413874 -0.050751107832844804 -0.05046411013821659 -0.050906933443868423 0.022054935901686307 0.0067642642026525847 0.065815892652470454 -0.051932221273729907 -0.052586031380522938 -0.051257653507296067 0.064921749628179676 -0.051142664139838936 -0.051773895682250042 -0.05046716351807326 -0.051042767682868473
leaf_weight=7.9364462997764296 0.65622964967042208 7.047562211751937 5.6962941437959662 2.3335660994052878 10.860395923256876 6.3755256384611148 5.4656285643577567 0.67476637661457139 1.394619366154074 1.7123726876452567 0.34529624134302128 0.36117800418287549 0.4802045300602914 7.6537494976073486 0.44152324181049951 0.47161231376230794 1.3702416932210324 40.311310789547861 0.652733338996767 1.3453253302723167 0.8410264467820513 3.8186451494693756 0.73780796583741981 0.29615896567702293 0.67695806361734945 6.3624037802219382 0.58475665003061283 0.38209605868905783 7.5658631045371285 0.41743072308599938
leaf_count=837 65 39 31 13 62 36 30 3 132 164 7 27 14 821 27 15 108 4447 38 38 33 21 22 7 29 36 30 14 831 23
internal_value=0 -0.0249551 -0.0336967 -0.0421447 0.036767 0.0195252 -0.00675381 -0.0390731 -0.0460053 -0.0364433 -0.0152955 -0.0250304 -0.00384947 -0.0454935 -0.0157041 -0.0464627 -0.0240614 -0.0485706 -0.0416051 -0.014918 0.0228455 0.0652842 -0.0506865 -0.0511812 -0.0505847 0.0647428 -0.0505337 -0.051302 -0.0505021 -0.0505302
internal_weight=0 80.1019 73.0543 67.358 45.1679 27.9451 17.7509 12.2853 65.0244 13.7546 4.12217 3.77688 2.06451 9.63242 1.39391 11.6105 1.84185 51.2699 10.9585 2.73994 1.32123 10.1942 9.76864 0.952389 9.03084 17.2228 8.23851 0.743274 8.2186 8.35388
internal_count=8000 6778 6739 6708 1222 1124 1067 1037 6695 1209 259 252 88 950 99 1034 123 5486 1039 170 47 57 911 72 889 98 851 41 869 860
is_linear=0
shrinkage=0.05


Tree=28
num_leaves=31
num_cat=0
split_feature=3 8 6 9 7 9 8 6 3 3 5 5 5 3 3 1 1 3 3 3 3 1 5 3 5 5 5 1 5 3
split_gain=41.442 23.9014 23.2562 10.5666 8.14237 12.586 15.6746 4.32215 0.65442 1.04865 1.0437 1.34485 2.19429 1.71205 1.41691 0.450918 1.32837 0.25837 1.65107 0.334814 1.40503 0.000569823 0.000438275 0.000434686 0.00011276 0.000290949 0.000103731 9.9513e-05 6.44279e-05 4.37563e-05
threshold=-0.84939890289888476 1.0000000180025095e-35 1.0000000180025095e-35 1.0000000180025095e-35 1.0000000180025095e-35 1.0000000180025095e-35 1.0000000180025095e-35 1.0000000180025095e-35 -0.54818590390206412 -0.67090231090076891 1.5954039633985246 -0.44698459032241972 -0.61980208332957643 -0.64859023690100426 -0.55934194090194633 1.1224459521640169 1.1724419857916522 0.8072725915836293 0.82400664708345261 0.95787909108203961 0.94114503558221629 0.32250941412180795 1.5796932822160559 -0.57049797790182855 -1.3739147800880789 -1.4210468236354854 0.96697671609977254 1.0724499185363816 1.5954039633985246 -0.57049797790182855
decision_type=2 2 2 2 2 2 2 2 2 2 2 2 2 2 2 2 2 2 2 2 2 2 2 2 2 2 2 2 2 2
left_child=4 2 3 8 5 6 7 15 9 24 11 12 13 -11 23 22 -17 -10 -19 20 26 -7 -1 -15 25 -2 -20 -6 -26 -13
right_child=1 -3 -4 -5 27 21 -8 -9 17 10 -12 29 -14 14 -16 16 -18 18 19 -21 -22 -23 -24 -25 28 -27 -28 -29 -30 -31
leaf_value=-0.050549799109794881 -0.050520329051908633 0.064666704104693051 0.06516635988594377 0.064455751749013912 0.064021618112306264 0.064025038938831186 0.064880729316904681 0.085123469286587372 -0.050461891521340591 0.083315651304874838 0.047302984716685814 -0.050474598499161395 0.1313851160685898 -0.050691937397634307 0.040397963977535541 0.044408020378799706 -0.050782490696568344 0.045573537806983228 -0.050454797396806389 -0.050473356410710837 0.04257221846035586 0.064811121324961293 -0.051823938242324952 -0.052233767717813989 -0.050469840739373044 -0.052454309147061375 -0.051264003387596506 0.063745053450681335 -0.051105559063375598 -0.050919292556921084
leaf_weight=8.5846727546304429 0.6245491923764348 6.8040548115968695 5.502240076661109 2.2524727880954734 4.4381462931633022 6.1514195650815982 5.2779674381017676 0.66356532275676805 37.48530599847436 0.36824104562401849 0.49739957880228747 2.5295135695487261 0.27060629427433003 1.3113980097696196 0.53379545826464836 0.51611324679106552 1.2642778092995284 0.51546382252126832 1.0928107034415 8.6415646336972696 0.52747388370335091 3.6872834116220474 0.73251133412122804 0.70175390504300583 5.0132995080202818 0.28240469284355629 0.62112867459654797 12.17580524086952 0.43297274224460114 0.70799764990806435
leaf_count=893 65 39 31 13 26 36 30 3 4301 28 14 280 18 126 16 19 99 34 124 965 23 21 23 22 561 7 39 72 23 49
internal_value=0 -0.0247937 -0.0335002 -0.0419288 0.0363018 0.0192927 -0.00670665 -0.0388324 -0.045784 -0.0359386 -0.0224736 -0.0278768 -0.00481338 -0.0174562 -0.0320259 -0.0462442 -0.0231879 -0.0484574 -0.0418654 -0.0460069 -0.0287869 0.0643196 -0.05065 -0.0512294 -0.0506063 -0.0511225 -0.0507481 0.0638189 -0.0505204 -0.0505718
internal_weight=0 76.7164 69.9124 64.4102 43.4918 26.8778 17.0391 11.7611 62.1577 13.2739 6.92071 6.42331 3.18579 2.91519 2.54695 11.0976 1.78039 48.8837 11.3984 10.883 2.24141 9.8387 9.31718 2.01315 6.35323 0.906954 1.71394 16.614 5.44627 3.23751
